solver_type L2R_L2LOSS_SVC_DUAL
nr_class 17
label 13 16 15 11 9 4 1 7 12 3 17 5 8 14 2 6 10
nr_feature 4096
bias -1
w
0.000334071389882152 -0.001641355169387468 0.0002624646591314157 0.002257348555978972 0.0003800872115387374 0.0001859941189706812 -0.001385410690497738 0.0008650134864674901 -0.00143796367323877 -0.001140982251972754 0.00286075714487271 -0.003715591991987739 -0.001233008844391681 -0.001281040133214222 0.002414740886251707 -0.006328187912453873 0.0003172882564491727 
1.355252715606881e-20 2.073992441831749e-05 0 -0.0002308654176154708 -0.0002095986794628672 -0.001617403201803661 -0.0001929139387041512 -0.0004556733638763852 1.01643953670516e-20 0.001739357004141591 -5.531554181578937e-05 -0.0005025209959150712 0.0006436032215951405 -0.0001817910169871447 -0.001317669690357862 0.0007568962250163245 0 
-0.001834154280716457 -0.001702935313679978 0.003245113707794492 -0.001462928485599361 -0.003625684818526771 -0.002629988435400971 0.003113123287666055 0.0006052515401322667 0.0009075155772466835 -0.004372325026187934 0.0007463587721008657 0.004049739568306342 -0.004704587883278751 -0.001609893821680779 0.007216614291083335 -0.002954316153581974 -0.0006573173120165401 
-1.925617992862507e-05 -0.0004788648852553016 -0.0009374410841363486 -0.0006837798043479894 0.0006653252576223847 -0.0003392235661764633 0.001082705767193839 -0.001238194410083505 0.00153176401596623 -3.157512688839175e-05 0.0007716344834537915 -0.001348933723983853 0.003405761368147069 -0.002305552348320945 0.0007439311305247648 -0.0007636266694485476 -0.001280274276228758 
-0.0003675264101340757 0.001063846580479158 -0.001445848192427543 0.0008015780184846955 0.001727859891781902 -0.005850517575887292 -0.001212644738379158 -0.0005849012577017497 -0.001268885502196208 0.00107969921346843 0.0009303030245043365 0.002830041103019534 -0.0005896081321780998 -0.0006557109114598383 -0.0006318380110841771 0.001370599431796002 -0.0004136117943319729 
-0.0005467509158220404 -0.0008530713518474469 -0.0005218962626782382 -0.00033051052679935 -0.001892566228120524 0.002411543041828365 -6.826972377298694e-05 0.00294680211277783 -0.0008772212407607519 -0.0008345332600091233 -0.001202963293505108 -0.0002783957281454224 0.001510861720509875 -0.002496574773549654 -0.001563294690502759 -0.001081981173596058 -8.835535394921887e-05 
-0.000511768884935013 0.0003419802429150155 0 5.600810978639733e-05 -0.0004204600110566953 -0.000832987196147931 -0.0002735490721444029 0.0004104814181983766 -2.616591546038793e-05 -0.0007961556573721815 0.001236612320583911 -0.0001386182232873742 -0.00198882534870251 -0.0003784448065885413 0.0009172350714302073 -0.0006567870723642264 -3.403471496711932e-06 
-0.003594534610226476 -0.0001267855199368432 -0.0002898803325890418 -0.0004834840403448654 -0.0003096881237787946 0.000135373049080802 -0.001880786362958765 -0.0004901038346269357 0.002428377077952797 0.001013606009305154 -0.0005180148984788243 0.0003855391682507771 -0.001537225119382994 -0.001728333155758479 -0.0009830612157848979 -0.0005816129675938921 0.002397503258695384 
-1.231437892900161e-05 -0.0001667935200743097 -9.053394371268429e-05 -1.015588374922541e-05 -6.124499152795448e-05 -1.938438638789948e-05 -0.0001260634369508671 -8.178105084988105e-06 -0.000163498914505223 -6.142493083310681e-05 -2.611781567178142e-06 -3.058532724041607e-05 0.0003163042118105867 -9.590053377509252e-06 -0.0002001854842618643 -0.0002775975168002538 -1.872584443953941e-05 
-7.437896266357071e-05 3.006966962752766e-20 0 -8.427521347471496e-05 -0.001449301708509843 0.0001800037807792488 -6.776263578034403e-21 -0.0003955299734749245 -0.0002396587101517238 0.001870858678151651 -0.0002606448361654424 5.50115683587188e-05 -0.0001163951853409999 0.0004944148165695946 -0.001566738333306001 0.0001751313617191289 0 
0.001187229027539823 0.002212117238579519 -0.0009654091091659828 -0.001211936325032706 -0.0004203721226763742 -0.001002873611383904 0.002837261739986684 -0.002001178763961587 -0.001493272196300076 0.0003260715019764958 -0.0001110308423821876 -0.001568305556533732 0.001239514574362814 -0.004461827965320795 -0.0008156048244656456 0.00101119423477483 -0.001206696660500713 
-0.0007960420980705355 -5.167783781073735e-05 -6.956361835414251e-05 -0.0005332744412586072 -0.0001722003032757389 0.000358238197962452 -7.408792823433462e-05 -0.0001369729253563463 -3.502526351987679e-06 0.001656618943630063 -0.0005833739066085649 -0.000890009624648844 -0.0009601508039374522 -0.001534879856762861 0.001258638377066005 -0.0009142513445121907 0.001092446949948748 
-0.0002667809824272492 -0.0007486007363760993 -0.0006912198651336243 -3.769002529328496e-05 -1.903695504876006e-05 0.0008168180541096696 0.001541757219298001 -0.001986547659969437 2.032879073410321e-20 -0.0005416072086966479 0.0002571688100486636 0.0003259028182330597 0.0002439547388081954 -0.001299389663764365 0.001225112520706002 9.862494829664468e-05 -0.0002872184092023217 
-5.530035513594048e-05 -0.003146575119052799 -0.0004382723282502482 -0.0007110747675409277 -0.0002854337631718171 -0.0008797058370825173 0.004012218383463592 -0.002161033981503385 0.0002123439340150742 -0.0001987438724269579 -0.0008045091257809667 -0.001134869063674687 0.006789157309620836 -0.001861943004505225 8.63596193036964e-05 -0.002612186048187539 -0.001431913515806594 
-0.002207285853264432 -0.001421922200853634 -0.002925206509317405 -0.0005185817788631548 -0.002373353427120856 -0.009858819017725291 -0.001247101981807436 0.002035758076737546 -0.003156172250120738 0.008088752129673082 -0.0006386049668304267 -0.001031738002003984 0.0004022948853756908 -0.003826288124066308 -0.001129352397306023 -0.001331831186618361 0.001159515614421313 
-0.001480374061035608 0.003458821452171999 0.002086091735680211 -0.001829477179948551 -0.001458749599109176 -0.000431118826967004 -0.003625315997933908 0.001509414153186322 -0.002829544817588317 0.0004365853370390023 -0.005237582656486235 0.00441953847459122 0.004487169699329012 -0.007889720714565261 0.003283704395086025 -0.00236773068782913 0.0009877443124226707 
-0.0006474699289475338 0.0006634245067701469 -0.0001059065418417008 -0.001234434611128403 -0.000379537501642575 0.0007509133492419697 0.0007094843629721942 -0.002383619133372299 -0.0004668581118600322 -0.0004824218545141852 -0.0005737853534906779 0.0003192297223305009 -0.001468452643516045 -0.0005795565947261085 -0.0006264944756517095 0.003371626072695023 -0.001500898472680562 
-0.001979284928673208 -0.003795117342191253 -0.002719771390927844 0.0003654600511819888 -0.003206395311563611 -0.003714227022475244 -0.001075337890245164 0.00131873100105678 -0.002598325006541984 -0.003912769958787148 0.001371236477103708 -0.002340417765661755 -0.00364731834037898 0.006811027894081167 0.003141314985648756 -0.002172805362701736 -0.001228990066890712 
0.005191858404466098 0.0004454530399175106 -0.000250683195882406 -0.001512190514602116 0.002976044996732946 -0.004795278066522237 -0.004004255401030385 -0.0005404937253835954 -0.01042256304052359 -0.0003871359638712434 -0.0009019943349886416 -0.002016534860828639 -0.002268632676118254 -0.001836734294004148 0.000791585764382027 0.004186057429431156 0.001957962651422933 
-0.002711450364039747 0.00104363363543115 -0.008552390527988611 -0.00604869998987056 -0.00443566508991911 -0.002127526567684044 -0.007599578669883514 0.005201225830398148 -0.003912160769822331 0.007117978593377631 0.005412959249336826 0.003625605497206578 -0.003142302958834803 0.009579121975889138 0.00537430493788599 -0.003779747139662803 -0.001947053741465373 
-0.005664702806757429 -0.005613860663318237 -0.001348744844082159 -0.002973729630266059 -0.001560055906956103 -0.002747880141722167 -0.009449321598674685 0.003812065418554275 0.009679230146957069 0.0003614254507457149 0.001405475297899947 -0.007600213987296892 0.002291025754343517 8.203810182653499e-05 0.002875470068846793 0.0008264430104518812 -0.002705601057875207 
-0.0001413415407722744 0.000991516113063287 -7.881819447239696e-05 -0.0006655995246403567 0.0007241410706159588 -0.001803412684022745 -0.001473608263444659 -0.0003578294091340179 -2.445067375436122e-05 0.00225458024907693 -0.0003480962238203767 -0.0006524002499973808 -9.885740500127668e-05 -0.002162869979423283 -9.84872908141067e-05 0.0002786026456614078 -3.516260990135204e-05 
-0.0004782789465727862 0.0002082778819600049 -0.0002005224035724966 -0.0004029562488297344 -0.0002374959227037747 -0.0009566457832301581 0.004537173306906853 -0.001283104531830957 -5.651404337795839e-05 -0.0002586036172302751 -0.0009794001398372722 0.0004329505069481268 -0.0004471551002060867 -0.001010148089154997 -0.002078281869333663 0.0002578702539343295 -0.001379342065271638 
-0.001889620533074135 -0.001257658865525535 -0.001573313396214058 0.003701863326152939 -0.001164463533177414 -0.002394290593319018 -0.001179211058705304 0.0005380527040994198 -0.001623263385560698 -0.003716349422597674 -0.003201809512574223 0.004494871335842474 -0.003974385650307177 0.002562985292390844 0.001370484012408363 0.0009108902303308691 -0.003730324792588348 
-0.002305547884824723 0.001094821885005427 -0.001764548972048476 -0.0003854636423036422 -0.002039036369822826 0.001698872756034535 0.0004366849863261323 0.002500025089219547 -0.0006357311767830223 -0.001384838754610748 0.001346683087290375 0.002728879785798164 -0.001408670895321661 -0.002098104902463507 -0.004532791113302601 -0.001605147254847972 -0.0001502812643110579 
0.0009695462570518609 -0.00109777176479859 0.001063956864847081 0.000975328864279538 -0.000950376231886751 0.001584982155924421 -0.004240454842119334 -0.00148320646927131 -0.001220698540463041 -0.002994353550562849 -0.002159884859578264 -0.001081175035397341 0.001450072048477612 -0.007135258633147273 -0.001797371458935307 -0.002007234450244014 -0.001629624835022327 
-0.000670107527943426 -0.0001067841826909472 -0.0001700141275259667 0.0003890719306575943 -4.057331549850504e-05 -4.235164736271502e-22 -0.0003359390490807068 0.0004681083043974539 -1.690449415129496e-05 9.277726022347251e-05 -5.189261547139607e-05 -2.259385708439642e-06 -9.529120656610879e-21 0 0 -0.0004486884615018149 0.001991991984950617 
0.003395420400098454 -6.096837528248094e-05 -0.001778989284976862 -7.552029002157908e-05 0.001585404810687567 -0.0002950654008199176 -0.0002499108562423701 5.944196808482398e-05 0.0004095963049861789 -0.00022208279988423 -1.673050777468675e-06 -0.0007573300533204276 0.002446808312497115 0.0007207722302917631 -0.000869672195367102 -2.860680276841574e-05 0.0004981263394585647 
-0.0009542096227430475 0.00205260225822555 -0.006260516625781409 -0.0001083516040751782 -0.002318863073977675 -0.00277747857248664 -0.003411719910037723 0.0006354032038325993 -0.001449220412385728 -0.002452641808531863 -0.003514477021756819 0.00294727291020959 0.01268147342801887 -0.005684977415352225 0.0007661286070313298 0.001461858938389026 0.0005555422124750396 
-0.0005976698848638784 -0.0003873462827321333 -0.0002891340902282603 -0.000323767092754593 -0.0006152116220153681 -7.152429273156939e-05 -2.379354349364019e-05 -8.360414874190537e-05 -0.0006091803324846127 -0.001092581903857653 -2.366755964102712e-05 -0.001019605406110747 0.002545123774896971 -0.0007363808048060839 -0.0005102246990387988 0.0006776039644013471 -0.0006772287530270682 
-0.0006562647986493835 0.0004330469568136366 -0.003158035856461271 0.0008568812496269897 0.0008262022854152489 0.0005320442786040833 0.002674136285820943 0.002146094690395005 -0.00190578605952918 -0.0002106574417507681 -0.00180859933971276 0.001173963818134572 -0.0003297914632364245 -0.005271377303041336 -0.001143551679267484 -0.001026436339096378 -0.001609511715808417 
-0.002418238486592525 -0.001836091219154756 0.0002867282182499968 -3.573461264835331e-05 0.0004837532830199008 -0.001756782992747284 5.686743727315601e-05 -0.0005275640585657981 -0.0009427930666250294 -0.002284498666663588 -0.0005503111434190371 -0.002034006988433554 0.001919846862665467 -0.0004836526619546266 0.001485988700344981 0.001986718872698941 -0.0009141660262570431 
-0.000266182108089842 0.00018884553574082 -8.470329472543003e-21 -0.00114668325817638 -0.001275720228722402 -0.000398618490032447 -0.00195058556769304 -0.001289292292607651 -0.00131718538337325 0.001439910695602469 -4.027202111125321e-05 0.002815010139288805 -0.0007720273443480842 -0.0006961445005285747 -0.005029164652596001 0.000682367019282489 -0.0009138629377467877 
-7.033280833501622e-05 -6.966268313849609e-07 6.776263578034403e-21 0.0003885635678801055 -0.0001464385641904209 -0.0005294454378666637 -0.0002343607175042509 -0.0004544057225356179 0.001452497081880683 0.0002989581497163593 0.001620154225058099 -0.0007628278404648893 -0.0003010465308579614 -3.918062423052632e-05 7.76788462130795e-06 -6.805277587490078e-05 -9.868978140138773e-05 
-0.0005309044097579998 -0.001952541636298676 -0.001926567197103218 0.0002092297633126022 -0.0009244347404574345 0.0007804830940781925 -0.002610548358932223 -0.0005389533994040761 -0.001509529605341416 -0.0008656363298780649 0.0008166092521813552 0.001362041389787932 -0.001257471561328685 0.001823215130502512 0.002563864024323651 -0.001779885509025524 -0.0005615756988268486 
-0.006589463442301041 0.003891086560566597 -0.001431612959173797 -0.0003584255146036157 -0.001809221432079002 -0.00481589133906386 0.00384758140556431 0.001594017340935053 0.001089086296573568 0.0009903356001760817 5.849677189181416e-05 0.003279126393686414 -0.005923493141625951 -0.002786657375921267 -0.0006966500451349007 0.00125479837237905 -0.001560511154093693 
-0.001611820555335236 0.002568397092011936 -5.349056761695189e-05 -0.002025067164550358 -0.0009927764594449349 -0.002453926248501291 -0.0126812241461177 -0.003130676642640522 0.003107103889782561 0.00152588987918066 -0.007650330507136582 -0.00275281151806851 0.007282340471816202 0.003990307484446048 -0.001575212240002956 -0.001711900406157273 -0.003386655263286003 
-0.005002982922191319 0.0002886488573624258 -0.001769303962625673 -0.004615419493951141 -0.003033066511856108 -0.004694957332455132 -0.003345878373421984 0.001231537779444964 -0.003423742045653144 -0.0004966343150855085 -0.003385331721028177 0.002735814309471204 -0.0006659405865732168 0.002454652648685702 -0.001152568256400177 -0.00313864358926526 0.002946356725706887 
-0.0006267726016036714 -0.0009981101877900652 -0.001258140443604031 -0.001128656989096257 0.0001822791191211138 0.000917608142160611 0.0002678772303939967 -0.001110798149528256 -0.008792080010839268 0.003065433104020177 0.0002204807327226989 -0.001044244223087093 -0.0003253130707697535 0.002695769272180592 -0.002088259263095324 -0.0009044937828098441 0.0004315551796065503 
-0.0006478296060929192 -0.01084560709683083 0.007026086272236858 -0.004055707779628452 -0.002496527818074577 -0.004222241012523754 -0.01167271013125038 -0.006277503799188558 -0.0003287275750857136 0.001379927226005744 0.004277829502426591 0.0086394934983012 0.003018826932974342 0.006153958297528626 -0.002041001472912708 0.001127663838436234 0.0002734166876032388 
-0.0005623239206214373 -0.001384743502930372 -0.0004942864188492493 -0.0003173736943911453 -0.0006831005326462681 0.0002646547892223186 -0.0004556013069249871 -0.001468555231180605 -0.0004311363174594479 -0.001549195972881125 -0.003325623930788365 0.003032970235479693 -0.001024946392444696 -0.001270390474247609 0.002814468072930723 0.001017581688779158 -0.000565810154614137 
-0.0005004861232938461 -0.0005632906500627465 -0.0001926650068896815 -0.0003203669941376718 0.001147414429521081 -0.003330209492229881 -0.001337359169657689 -0.0009388328047662025 -0.002042347318800649 -0.001059065629657252 -0.0006907198982102671 -0.001911154843711119 -0.0005556558148119174 -0.001129778673152938 -0.00231282348635223 -3.055516929029986e-05 0.000251588730267834 
-0.001207019405095402 -0.002008508457947382 -0.007432194552869995 -0.006727889381567149 -0.005297885199868255 -0.003694052626704293 -0.004418716084653003 0.002471959821881746 -0.007015241774424769 0.001947985139570038 -0.00517800892157792 -0.0005625303291047575 -0.01291066621228299 0.02575380450315076 -0.01155063831841371 0.002670617158776173 -0.004207102681748939 
-0.004741809870365414 0.004423898862282047 -0.01179849575509397 -0.0005984824842741338 0.004949891388931741 -0.005826254223078227 0.0008702459773369821 0.001215394963673695 -0.003750114386910321 -0.009391488394043863 0.01660167406844475 0.0003934833827068311 -0.007647560620835953 -0.004501200089658712 0.0006916308455185817 -0.004157024037903465 -0.00301207990822597 
-0.0004182194857856991 0.0001615249292819852 0.0003590709672165938 0.001117683107394258 -0.003170096191961979 -0.002586477784358798 0.0009576871397725949 -0.001442208492563933 -0.001170254487442369 0.001970312258248433 -0.001137850543148052 -0.001826279222010452 0.002806669428154535 -0.007090685643996245 -0.001769156241830625 -0.001101443157172423 0.0001528331305086002 
-0.001024896170511279 -6.63727948264742e-05 -0.0002983138261359227 0.0004835022827180074 -0.0009709893686587244 0.000199544813775677 -0.0008493171130488308 0.003269041059483944 -0.001033854873176097 0.0005026770246628919 -0.0001605579355418157 0.0002780199244809048 -0.0009150872903065149 -0.001642568595468961 -0.0005553681654169813 -0.001316763193986871 -0.001230809225868605 
-1.887280804859266e-05 -3.630171366693141e-05 2.879912020664621e-20 -2.071122962269681e-05 -0.0005728482884858121 0.001634910461133601 -0.0002928522249962292 -0.0003807123627062597 -2.145386754734962e-05 -0.0002518873313145257 -8.680932367980048e-05 -0.0002155722943217946 -0.001072340384539253 0.0007267111247308913 -0.0008025925290586635 -0.0006047573040011118 0.0005431648257461083 
-0.00420501685863888 -0.0001779544890472809 -0.004657586077783714 -0.002740602525942625 -0.00139818529352169 -0.002475902773299946 0.002956751689176524 -0.0008401630982842479 0.003955739241329573 0.002290856066153224 -0.0001901076011126353 -0.001688294338209282 0.001236068344576358 0.0007341215286693652 -0.001312052749476114 0.003002835115629234 -0.0007793312444856881 
-0.002830290612394982 -0.005507641050923765 -0.004688433075307318 -0.0007919682682884365 -0.001184243507679486 -0.00248644362964995 0.00438061408680553 0.00717942857568623 0.00294266309156232 -0.002299175663792598 -0.003480787563193246 0.001774206680504536 -0.001235580923086528 -0.001949490649414744 0.0004084294663297023 -0.001237361645385372 -0.0007822009713444352 
-0.0005051223314457602 0.002401758829440555 -0.003673709322916579 -0.001053649224307365 -0.00082666472031404 -0.0007976621883543761 -0.0003556512186622285 -0.000325830801721909 -0.002139531198628667 -9.663421318002003e-05 0.002144005715539698 0.0008849697437013832 0.0006663869483610324 0.00411149430120781 -0.002863241026336069 -0.001922917553475554 -0.0003043485326475789 
-0.002222461387543504 0.001732682274298011 0.0001388653861894112 -0.001929814022779506 0.001780848139830319 -0.004342847820585728 -0.000287915295810469 -0.002292657266474388 0.0008273216791440157 -0.0002612837848890378 -0.002196081267614637 -0.0001411747239816954 -0.0002875116293736154 -0.002918881625944208 -0.001956689043396748 0.00282255669874261 -0.002951881405548435 
-2.212523688792509e-05 0 1.905824131322176e-21 -2.433484434187443e-05 -0.001289410079609288 0.001330443301468057 -0.0003066129950286448 0.002351566381245769 1.985233470127266e-21 -0.0006905734969388752 -0.0001019516405470728 -0.001062553660432475 -0.0002459048788150753 -3.072521520703819e-05 -0.0001017092648360138 -0.001002951698883923 -0.0003099607026194935 
2.86312758993881e-05 -0.0002323605304171185 0.001032484550408086 -0.0004658120641399471 -0.0008742589082477149 0.0001770172778985606 -0.002191475417651649 -0.001732811458905395 -0.0009992661652020098 -0.0003877334080445523 -0.0008289983261625847 0.0002543911963999733 0.001502975304544704 -0.0007032145895354235 -2.066998366868181e-06 0.0008160713130806438 -0.0004057375527775264 
-0.0006955072177642191 -0.00126015677076171 -0.002504632994255385 -0.002038785309733553 -0.000598973771555196 -0.0001589609807859679 0.003454479624599103 -0.001944600866853354 -0.0005885240332404934 -0.004459648345449361 -0.0002140031922584402 0.0001497386840196758 -0.001755089814825846 0.004968630416608025 -0.002644296401091783 0.000253633262113044 0.001751754696066179 
0.002676901944779629 -0.003867861968632259 0.001147639714084672 -0.002664176000336226 0.0005690251167477898 0.000369726702457127 0.003034271201865404 -0.004046249682956416 0.0009303799451572649 0.0003440874772653297 0.009159773945744153 0.0003234114215539014 0.002417806879366692 -0.004211239313060789 0.003258879061098389 -0.002165727413013322 -0.003103227565341209 
5.218343933145756e-05 -0.001192520468882083 -0.00295108251177118 0.001503456903224968 -0.001070892309102134 0.001817063942290639 -0.001181183752160376 0.0005135338973871796 0.001803231678236355 -0.0009086538791476087 0.00174538532805521 -0.001162893640068206 0.002337428219044412 -0.003961940516710396 -0.0002344096139992804 -0.0001787488592016276 0.0001200989857291769 
-0.0001258861766518161 -0.004365389235005375 0.001092281539119581 -0.0009400063259890535 0.0006644894262396057 0.003710656537228391 -0.001394341048841715 0.0005620286422205554 -0.0004873416397530145 -0.003027661514128042 0.009131300091375239 -1.250771082299952e-05 -0.0022732007049722 -0.001861801490338208 0.002925675020430121 -0.003205798948294027 -0.0005621125531993907 
-0.0003405142561432108 -0.001311974429042042 -0.0002103282884403384 -0.0002203550770035777 -0.0007525500628606406 0.004206708793402072 -0.00069469427420956 -0.0004251621750375249 -0.0002772748248519 -0.002447229008465868 -0.003562077914850963 0.0003756212028559043 -0.0003725102037492425 -0.001615980632976243 0.005975219758345823 -0.0009070304401101644 -0.0002332298713546971 
-0.0006172890562876985 -0.0002183393829153796 -0.00121819446843121 -0.0008023482100160295 0.001324054232999525 0.0009424465659349172 -0.0003290545392821376 -0.002818967574369188 -0.0005374562987422726 0.0002370837810223826 -0.002597342347120225 -0.002168441207634079 -0.002213934021737235 0.0002959115640168263 -0.002115172632674191 0.002129664035202236 -0.0004344080601583516 
-0.0003253383595688071 0.00237983490092124 0 -0.0002326784587065487 -4.106870634410272e-05 -0.0003092781143658082 -4.103221719192499e-05 3.676271002747061e-06 0.0003050008639339618 -0.0005710548956889725 -0.0001178140318281501 0.001489877786901197 -0.0002365369267121236 -0.0002545393903902771 -0.001345737028220866 -0.0007906635171865364 0 
-0.0003549508724289753 -0.001012980470009279 -0.0006690193615351311 -0.0001991283692483637 0.0001781702216822178 -0.002614723721212909 -0.001034604582931663 -9.068915674656776e-05 0.0003810227444215171 0.0009088486601048517 -0.001844129644951484 0.0003962502767646864 -0.001390397442343908 0.002192377208502177 -0.003101056491568195 0.0004811801692244783 -0.0008179685019643305 
-0.0005936590041999263 0.0004079912129931021 0.001184767714992129 0.001691068590763117 0.001091353175452934 0.001546713098339548 -0.0001448410194736446 -0.00161397185131413 -0.0005294939314650849 -0.0006455004519181727 -0.0005955705404798197 -5.586929303638035e-05 -0.001049986894907867 -0.0008610635080182367 -0.002726068658434122 -0.001649132458176391 -0.0004236707326635952 
-0.0001175512167251699 -1.165512965417395e-06 -8.470329472543003e-22 -5.909403794751713e-06 -0.0002683898131777561 0.0001464779212635944 0 -0.0001078068258853817 0 8.090828812479767e-05 -1.482307657695026e-21 -8.470329472543003e-22 -6.776263578034403e-21 -0.0002175531176582025 -5.09182048114455e-05 -1.994088875397362e-06 0.0001162451162827244 
-0.0008737488314960002 -2.67027198455342e-05 0.004778615332566699 -0.000987980016363206 0.0002591409362362781 -0.000949397743530983 -0.002761920078005625 -0.0006925646866807116 7.752622034743621e-05 0.001166905651291423 0.002091975888419223 -0.001821724484275105 0.002430146448721378 -0.004596303510703664 0.001883767051809978 0.001088254596103436 0.001106429439758377 
-0.0007198265841405222 0.002311421801178784 -0.002068761045202655 -0.0004609006052993015 -0.000549900063844412 0.003228639725767522 0.0004536198412146779 0.000779010042526736 -0.001582571389590875 -0.00184039504011574 -0.002708265535806754 -0.001855187033398402 0.0007627559483638908 -5.824208372294897e-06 -0.001131646578950313 0.0001720692024188419 -0.0007353977966481612 
0.001465934441002075 0.000971552948085215 -0.0021942456378644 -0.001083233500866002 -6.071021611110087e-05 0.001814421946552049 0.000108307849073832 -0.0005925371029086678 0.004807625628798285 -0.001362692453301871 -0.001256575135948988 -0.0005755712618876696 -0.001884595210796972 0.005653043509011927 -0.003815183592592237 -0.001522520221947367 -0.0005653951591835235 
-0.000538486195177648 -0.001238839421871422 -0.001209959391249962 -0.0003520359158997453 0.001771643993217987 -0.0003566805835062995 0.0004817592147356882 -0.0004569366717514513 -0.001037357631462088 -0.004032445671075721 -0.0002477372539198687 -0.005893738762413604 0.001522362027765397 -0.001479287668641551 0.007064388419973213 0.002745863644520465 -6.718275490534022e-05 
0.0002508502164183713 -0.003097542855703776 -0.009500420847025222 -1.699580792695551e-06 -0.002356295359278627 -0.002664164494272765 -0.002477124702641672 -0.0009124295623042591 0.001335631882829782 0.002017314982068855 -0.002782332166694472 0.001296008069505739 0.00341058321956927 -0.001523708193118449 -0.001880058676305924 0.001537899070946693 -0.001876512922228839 
-2.715278718698747e-06 0 -1.694065894508601e-21 -2.117582368135751e-22 0.0004494445433659032 -0.0005096403668112756 -8.576968818319945e-06 -0.0007563215496617275 -5.463362509790237e-20 -5.788766787873306e-06 6.140988867593677e-21 -1.517682529312745e-05 -1.434785394211641e-06 -1.243414833176551e-05 -5.376047096690481e-07 0.0006646150811913248 0.001173509543597593 
-0.00154946835622074 -0.002216026641713017 0.001106849368700005 0.001825162142626002 0.0006554486289729173 -0.0003858273726667712 -0.0005581449084012964 -0.0007701413120283128 -0.0005886347389331835 -0.0007580359085862277 0.004555516230333024 -8.613688515081597e-05 -0.0007090692883067756 -0.002095856574156086 -0.0021209555944403 -0.000959127064709526 -0.001790438008757371 
-1.058791184067875e-22 0.0001933520173478004 -0.0001440040721788772 -8.941275505776707e-05 -0.0008713918334285442 -0.0004005461230647568 -3.122145916001562e-05 0.0007501628545716292 -0.0002088891445584136 -0.001269888009562034 -0.0004022029980103532 -0.0002247130967623074 -0.0005894954956664767 -2.032879073410321e-20 0.0006616290630646861 -0.0001314692968196426 -0.0003700615445390886 
0.002191430898158808 0.0001291769640487647 -0.001505977621860927 0.001181918761649846 -0.0009662673239227856 -0.001151997581052129 0.001207071520577143 -0.0003857841308084804 1.704392961847226e-05 -0.005177530900065337 -0.003921967486444958 0.001101395282852814 -0.004576700258249618 0.004788179376265517 0.0002593343896190699 0.004625115639534484 -0.0003839582646814963 
-0.000563376403035198 -7.874332144611823e-05 0.001577349840534418 -0.001031061015695435 0.001863759187388958 0.001445251809590202 -0.000520188461629526 -0.002897463338601969 0.000612282920979909 -0.001716008598535221 -0.00144964960021964 -0.001170759000407418 -0.0009342600974732637 -0.0007911696426806487 -0.0003638145211358322 -0.001898733336311862 0.00155585873007776 
-0.001525551096721536 -0.001281305719346664 0.0003674110030278822 -0.001346298110370698 -0.001128552602107429 -0.0004933175062870825 -0.002172893551138026 0.001260988464224817 0.0001985883133053784 0.001034462528592079 -0.004402230260158627 0.0008505734471217495 0.002384518146462854 0.0004332794674124353 -0.0001565819143274849 0.0003321692558685863 -0.001014718819938249 
-3.346721240863897e-05 -0.0002446110449678372 9.740878893424454e-21 -5.442357172563303e-05 0.0005934838747157388 -2.30896713598551e-05 0.001025672643578954 0.0002653938338044227 -0.0001962748541381346 -2.343779703979268e-05 -5.136856268522892e-05 -0.0003318062805423883 -2.051496320992051e-05 -0.0001369748387041909 -0.0008949180092494501 -0.0002810947569146223 0.0006652448910254577 
-0.001357953158981105 -0.0003785820834776136 -0.0003690345234211153 -0.001064185167462751 -0.00230395313327282 -0.002505004444639643 0.001161539979159272 0.001993713288424686 -0.0004951400037288663 -0.001507644439306531 -0.002706508307614171 -0.001949777139856851 -0.005465893056605197 -0.005219054719859516 -0.0001219152053212277 -0.0009111535808734274 -0.0005255283597873228 
-2.791722958783086e-05 -0.0001378782702630627 4.424363247139817e-05 -0.0002305388163393141 0.001571154096473571 -0.000381473403354005 -0.0007062066416095652 -1.208154904373159e-05 -8.78681955906098e-05 -0.002919186511564881 0.0001524066243672147 -0.0003303188919383859 -0.0003414959613666196 -4.843250724364154e-05 -0.0006240387405744633 -0.0004402620656289766 -6.952057847705979e-05 
-9.019311506121256e-05 -5.210920366772585e-05 0 0 -3.889094387929248e-05 0.0002410403217486864 -0.0001439118212452226 -9.910243277060063e-05 0 3.643119908399744e-05 -0.0001052290585897025 0 0 2.117582368135751e-21 -8.470329472543003e-22 -9.478245056965075e-06 0 
-0.0004649602298465268 -0.001122681028478841 -0.00130083348367784 -0.0001387470492312607 -0.0006413236328728475 -0.0001989300100909004 -3.766161152015197e-07 -0.0004217381629824104 -0.0008283567733138225 -0.0004550614981181387 0.001164649121998326 -0.0005758869978202182 -0.0004532797582794314 -2.904049682193117e-05 -0.0002448746201170609 0.0005499180496544133 -0.0003021628737798659 
-0.003549086158926953 -0.003163213750988679 -0.00177967222706893 0.0007545632050632295 0.006576684107390675 0.001590747762901937 0.003279951424287316 0.0002324700157844766 0.000440683226827453 0.006092135341465162 -0.003255588337697167 -0.002718414437245169 0.008734439200197744 -0.006670608907944886 -0.005579143028223437 -0.0009425293085144684 -0.001297411584014535 
-0.0001069903080995355 0 0.0003821710053988931 0 0.0009124116330048105 -0.0007149488552435921 -2.1350329920925e-06 -7.10921646348357e-05 -0.0004070032984363669 -4.036997607916441e-06 -0.0001726825291136239 -2.668973443603902e-05 -0.002031177072219365 0.001982302093329962 -0.0005500996657485878 1.982199956993524e-05 0 
-0.0006742518919840627 0.000972156412400161 -0.0004635019319021547 -0.001241444201388402 -2.897025459752852e-06 0.0002919159190479329 -0.002897444347688607 0.001030528766067781 -0.002036128659108078 -0.0008661764097964259 -0.004137705639469179 -0.000999337880501516 -0.000301028855263277 0.002161361606772647 -0.0009461720490658635 0.003575115398976792 -0.0002407925245060816 
-0.003045131728313978 -0.001340325320449843 -0.001448540192261558 -0.0004210152463182887 -8.692075118626964e-05 -0.001439150718338983 0.004328150106704497 -0.0009055324098466976 0.001059566448400048 0.003175771223962565 -0.0006552932325962581 -0.002067788818286943 -0.00268061030397709 -0.002330007906626072 -0.0004323628749207445 0.001012093099911955 -0.001314986249484211 
-5.929230630780102e-21 0 0 -5.375156923065176e-06 -4.235164736271502e-22 0 0 -0.000271495371154113 0 -2.617673257535367e-06 -1.832884046645052e-05 0.0001170490862952563 0.00235503283112514 -0.0009636081728290936 3.388131789017201e-21 -0.0005798353699051048 0 
-0.0002309604496323944 -0.00139161382124749 -0.002425834208885196 -0.000828308128565456 -0.007180861796891037 0.0086377193614276 -0.003971801891871208 -0.0006281784113287585 -0.0007509269830704361 -0.004982095456471784 -0.001964010203990997 -0.0003474459065727756 -0.004379052271346395 -0.0003202281526122554 0.003547225885009035 0.0008133743014073512 -0.002080792712411318 
-0.009315541889518043 -0.0007654902130955847 0.002768649703517328 0.0005308418873476078 0.002641548522387703 -0.001128676816764516 0.002688541494719458 0.001059426682243133 -0.003424753643383079 -0.004806258196913032 0.003587024461350889 0.0009694705912369477 0.006258021564139766 -0.01154664540503626 -0.004087498235146728 -0.006915310478767077 -0.002017006912211297 
-0.001280187969524362 -0.0001096720662139272 -0.002169995894593699 0.0003949915967647717 -0.003678538208043888 -0.00169040910317613 -0.001484364894142443 0.0008514345439071661 -0.002826057552229481 -0.003101729764812858 0.002796213989346098 -0.002166221541610827 -0.001043746439584411 -0.002173650787754705 0.002493726062645878 0.000969845505713545 -0.0005262616728045258 
0.0004527574061351558 -0.0070673386545414 -0.005870795731272066 8.162684068242988e-06 0.0009579402921954704 -0.0024893377689047 0.006174423204624291 -0.002056964324906071 0.002354027393096688 0.002206525255904454 0.0005588490952728232 0.001062137872555464 -0.007369526441341152 0.006365350645068485 -0.003836857719336755 -0.0005573583089871271 -0.002825209831278015 
0.0004097157610367819 -0.0005928786634192939 0.005069526185302276 -0.002943864062855359 0.0004674698657567982 0.000648912913344125 -0.002415910095252174 -9.953570204081788e-05 -0.002846352305725563 -0.002239130324998027 -0.0002563130304201905 -0.001324406531534616 0.005346933673207026 -0.007505235222691871 0.001117851647944726 0.001250777581227612 0.003508134726244016 
-0.004186224245623217 -0.004773129573555886 0.001711180799581178 0.006432957661203661 -0.002645205955105373 -0.002954994308853727 -0.004588149366225492 0.002644805499944088 -0.00111142322294987 0.0002235350133937318 -0.003014103715852838 -0.004685569352668794 -0.003465582898655058 -0.0120126143214208 0.002520803115202714 -0.001177333490041581 -0.001346632614153796 
-0.0001065699600674458 -0.0007189064472176766 -1.355252715606881e-20 -0.0007107285745472519 -0.0004706895301504966 -0.001523798267446207 1.948175778684891e-20 -0.0002502404255286768 -0.0005606590423809011 0.001148770520664568 0 -5.925546763281251e-05 0.001437841252014223 -0.0002858819495532243 0.0004601176475865228 -0.0007380406397176847 -5.082197683525802e-21 
0 -0.0002059722408268269 -0.0001108948047091069 1.707300784309449e-21 0.0002731920195163448 -4.183690076834813e-05 -1.694065894508601e-21 0 -2.541098841762901e-21 0.0007392058975956322 -0.0003644235185023214 -0.0006600555023874979 0.0005206282282351454 -0.0002991703077039983 -0.0004458393264584926 -1.058791184067875e-21 -1.968633516160705e-06 
0.000221172520945448 -0.008360881389809317 -0.0009307240064145961 -0.0004395281825725932 -0.002326140578360362 -0.005540440580918885 -0.002855927485127236 -0.000535344015334026 -0.001446668348863783 -0.00469619299291075 -0.0002801575216682942 0.006384057364572197 -0.004450409805306821 -0.006730662241207327 0.003216709011249171 0.0001073406586127838 -0.0003614502751945197 
0.007540778925612956 -0.002281346605855769 -0.005424678681767048 -0.001912194190012552 -0.002146938017340074 0.002287624545578384 -0.007724526553041961 -0.001093514521542894 -0.00317408053006986 -0.004742831801486554 -0.004474849523389269 -0.004359552151253834 -0.0009287245211990502 -0.007750866812854447 0.001211591837650611 0.002446442866409179 -0.003536711913742118 
-0.000518861696030529 -0.000569695519286186 0.0005679965672216491 -0.0003555511382160052 -0.0004815315183657998 0.002648772140123467 0.0003463877533834817 0.0003006524029054485 -0.001190013919962826 -0.002393407415608906 -0.0001287763944371027 -0.0007958199745738137 0.01186403498530595 -0.007658740004485045 -0.0003650587760740574 0.0004322922731328725 -0.0002142215915299362 
-0.003967978872671603 -0.002703892839384464 -0.001295258072405157 0.001709840071832232 -0.0005699429720527082 -0.001467582401415529 -0.0008152835429284915 -0.0004192144554817432 0.005226260845326991 -0.0003996530066957735 -0.001253064596725237 0.004357244857748181 -0.001530704889434148 -0.00145053470869521 -0.001018608598463534 -0.0008557650878261323 -0.001365907048632937 
-0.0005875012136261082 -0.0006510522483771436 1.397604362969596e-20 -0.001008400823457437 -0.0007400642525577979 -0.001735241831903844 -0.0004649764835264475 -0.001974592110910103 -0.001226560271568337 -0.0008017571011542628 -0.0006677387272065828 0.002859568427275917 -0.002227896204293683 -0.001179595993670711 -0.001169262169185556 0.0004607610235762064 -0.0002689357072470819 
-0.0003548776729182171 -4.997941693238193e-05 -0.001296151425150146 0.0003535272828513722 -0.0004017044952569437 0.0002551415237685625 -0.0001557501927816318 -0.0005037581949723081 -0.0003518333396003839 -0.001763219283173869 -0.0002788278815087445 -0.002426249063533487 -0.002954996074582293 0.003678094470380456 0.003840263953363451 -5.493872830116056e-05 0.0007442894177453559 
0.001414781214489256 -0.001038216973874642 -5.612037938419805e-05 2.001715657823565e-05 -0.001841966788737225 0.0005869741449345973 -0.001230930257568878 -0.002138722280309743 0.0007884647044329445 -0.001472791753649168 -0.001190169099603883 -0.001584956326413214 0.0003350095092284622 -0.0033840986955927 0.001042011200879329 0.006747468955995099 -0.002751332946416682 
-0.00101988549504785 -0.001082142583288569 -0.0003193328889802373 -0.0004113496013884494 0.001268519538446372 0.0004534865140750845 -0.001850902053451611 0.00210407143303835 9.330932908580091e-05 -0.0002991325813198424 -0.0001005096438002373 -0.0005253860118686629 0.0005358399273323253 -0.001323411621077691 0.0004372147224309861 -0.0008377202552735426 0.002040518051772021 
-0.0007153776212246102 -0.0005261453431568414 -0.0007122893483231856 -0.0002798729767968391 -0.0004768825358003351 -0.0004334936943714282 0.0002726763709418778 1.100685776098343e-05 0.001623688054635084 -0.0009402685197556311 -0.001331821311363537 -0.0005760735425856446 0.004270004941192496 -5.94742192883989e-06 -0.00124867152792088 0.0007459981273952461 -0.0001544276596148341 
-0.001183119208156335 -2.524370732283723e-06 -0.002514980117290774 -0.005341209551404018 0.003072053961887187 0.005761608690129186 -0.002733690736707371 0.0009038057769055134 -0.004343268186565579 0.0005777663575008592 -0.004919587934194167 0.003977138594769588 -0.001330194040789533 0.004165552773605421 -0.00259351823941379 -3.236144578757013e-05 0.001583488742124208 
-2.136754067495135e-06 -0.0005204121273731994 -0.0007083978108903314 0.0005061032507568579 -0.0006676308329527388 -0.0003671065868958535 -0.001401064614086606 -0.0008114972969227414 0.000879984118361482 -0.0003699117404433624 -0.0002271139297188648 -0.001046657701752238 -0.002538309904082937 0.001080621047764999 -0.0006988987669516455 0.0005481705903747435 -9.422441588391391e-05 
-0.0008465525759020588 0.005061265196567605 -0.0009623561095087787 -0.001051489471430399 -0.0007242226638678727 0.0008626779430952388 -0.003288597461397706 -0.001159083088719091 0.001783841463395595 -0.00115949508265533 -0.000218783277788918 -0.001813267780531278 -0.001510026728006669 0.001243592072574125 -0.004156351752822041 -0.001287481926477459 -0.0005383578774435856 
-0.001482863505289539 -0.001098081023371577 -0.0009902246841594687 -0.0006303509899186238 0.0002073418746481308 0.003014680022544701 -0.002118752639706481 0.0006979856163152334 0.001086039376149464 0.0002903298017988733 0.0008589785924453685 0.000126744069145979 -0.002026267501837866 0.007178250694904627 -0.00157734039027786 -0.002727184466343406 -0.0004550670080697483 
-8.406303666429671e-05 -4.235164736271502e-22 1.355252715606881e-20 -0.0002567653787920026 -0.0007894779520237193 -0.0003439760384445427 -8.261868422493154e-05 -0.0004707616121947165 -3.803284022684504e-06 -0.0002114889934786 -0.0002675094694192288 -1.253408866961803e-05 -0.0001409671650968279 -0.0001446146342887319 0.0002916849356397053 -0.0003869863527533719 -0.000114221446616272 
0.0003284081808424765 -8.612016227692307e-05 -0.0007177233983677108 0.0005822086898532885 0.0005795391612503189 -0.0006905558594925452 4.643155850862704e-05 -0.0002031780103133933 -0.0008348957107086023 -0.0009679099988251829 -0.0003174522638513155 -0.000219855304107598 0.001032469295150353 -0.0003770078864275862 0.001211180921036468 -1.878344680173914e-05 -0.0006457789190261182 
-0.0003270760688477995 -0.000646338010691051 -2.710505431213761e-20 -0.0003172154801491544 -0.000597436106551745 -0.0005597097049624663 -0.0005645907623485358 -0.0006577957991471413 -0.0005607078188892922 0.0001725676442799458 -1.355252715606881e-20 -0.0003711682128924694 0.0001990467747253694 -0.0002751165281631438 0.001392316260777733 -0.0003462835051373303 6.776263578034403e-21 
-8.947306750942976e-05 -0.0009020093919680866 -0.0004812915212827514 0.002641823688029453 0.002046054072827052 -0.0007242433714071058 -0.0004457468296627077 -0.0002284357415345819 -0.0007358722618747732 0.001497384678716393 -0.0007609425428186339 -0.0005098525582615366 -0.000374908397696664 -0.0002574902175492278 0.0004147621724680808 -0.0002623421656051396 -1.126553819848219e-19 
-0.003346570618517293 -0.004398753252923306 -0.01025963569320184 0.0008349036752957029 -0.002848234783826058 0.006240160077916121 -0.001991113060784956 0.005078631680024425 -0.00397122561431856 0.001876297857227679 -0.006339780631535136 -0.009841419748168592 0.003505020529311004 0.004853364426354663 0.001411387365967158 -0.005562142073480569 -0.003354216055297333 
-3.80296459908506e-06 -0.001173670959482394 -0.000263161418359056 0.0004019444599239654 -0.0007072428718570153 1.956334075960544e-05 -0.001278721641301007 -7.620931184458634e-05 -9.197782811423217e-05 0.001201582934764073 0.0003686284257427793 -0.0004373680051988037 0.00114712638981574 0.0001443517967606172 -0.0001431235334792799 -0.0001154527350688041 -3.388131789017201e-21 
0.004453069243204692 0.01219633016132585 0.00668203610137721 -0.001453369685687854 -0.0009102329214668003 -0.001172938493448444 0.004985766166482875 0.001460250317194768 0.0022946390674953 0.003896058838013096 -0.008190070839168447 -0.003347246228577912 -0.001578260557209126 -0.003349494049521605 -0.003494915366315837 -0.00457073433284648 -0.0009624201884837452 
-0.009442843799756413 -0.000389963467641488 -0.0003228498112409587 0.0006972035379448172 -0.007900593571860509 -0.001051734326716993 -0.001635694188858373 0.0005780809037642833 0.008597383486559104 0.006540197579599494 -0.00589725812184053 0.002375473653351736 -0.003817906359319662 -0.006254776480935716 -0.001769816946225986 0.006102939652197835 -0.002634297322347774 
-0.002610590275340212 0.0001025683658567922 -0.005816881458517578 -0.003700196046681532 -0.004459841779198984 0.01387384923275319 0.01876710999932223 -0.0008717792317251995 -0.00530541758891494 0.002137379320897501 -0.001558858968715674 0.000209850436834385 0.002539249478274437 0.001694747701385543 -0.003800511126936204 -0.00608445932533784 -0.001948978365988359 
-2.417073059756484e-06 -0.0001405290884473641 -0.0001851510865160952 -2.926419797068393e-05 -0.001745592693525259 -0.001262901448243603 0.0005299522811425456 0.001456583301913399 -0.0002812851114693548 0.002276386805717987 -0.000138412953150493 -0.001469305925065943 -0.0004946664854614869 -0.003179330784346054 0.001812241765577825 0.0001955466801415407 -3.061694302346619e-05 
-3.388131789017201e-21 0.004357151890239799 -0.001906086487394103 -0.0002622901766009357 6.561331558704746e-05 -0.001002916969418824 -0.001422020188161035 -0.001201233594234138 -1.199230205015152e-05 0.007158638511709592 -0.001671332028804454 -0.001245752248259512 -0.0005251835155178096 0.00138610013657195 -0.005746000644348637 -0.004283419683870414 -0.0001923362635295976 
-0.004824061095421338 0.0105285184463301 -0.008083754614769617 -0.0001181596029959613 0.0004318221404481173 0.002594534012752483 -0.004335821131624951 -0.005260459120948996 0.005328476315457738 -0.01102008084802984 -0.005422898578497882 -0.00463073910370243 -0.003367721277852568 0.006772342120987627 0.005373234632078641 -0.0004330185647255546 -0.004403224195237243 
-4.070958575889956e-05 -0.005723074004137048 -0.003517928346665954 -0.00255392792164042 -0.004316585341622167 -0.005250996827405677 0.008246847205406692 6.213875533126728e-05 0.003068677057629979 -0.0004361468196690718 -0.0005301952240567708 -0.005522860981622517 -0.003443740181057855 -0.002301386835368086 0.006087206916933436 0.005998196739088875 -0.003176113621136868 
-0.007693525013362089 -0.000548520513879487 -0.0001016242550186502 -0.0003773792443535671 -0.0004068074348596865 -0.001780607605049397 0.00146365927590763 0.003619297835997192 0.0004369805420254222 -0.001735668101826419 0.0009729202153734275 0.001428029756090247 0.001500351848555897 -0.001521749192131966 -0.001182616757628245 -0.003593974786354979 0.0002922624044808398 
-0.01241920165662085 -0.003607519484891531 -0.0002127048612773282 -0.005551362569727729 -0.0002161904432035984 -0.000583051721795094 -0.00583347580009979 -0.002393393051608414 -0.00196271426433564 -0.0006693112335565981 0.005681909335884147 -0.0008351136828176217 -0.004715333542001129 0.005271817105970258 -0.0001499051125393355 5.941089546666301e-05 0.007093485602347837 
-0.001958634973408344 -0.0005861783380729738 -0.001125537888571443 -0.0005512463366701535 -0.0007183511059214494 -0.00192162746902834 -0.000877922224158553 0.0009258962238703039 0.0005581684011283671 -0.0005271864325434142 0.001495359403148371 0.001343500514106546 0.001254156859431379 -0.00103935867551012 -0.001317568386186156 0.0001018658239365461 -0.002095545740655898 
-0.000104530413943363 0.0002842594489351036 -0.000276240142430428 -0.0002712154799144295 0 -1.606352658229368e-05 -7.780742827474567e-05 -9.526956619749605e-05 -3.595304501540181e-05 0 -0.0001106270855521947 0.001085135697377827 -0.0001378272375626048 -0.0006058365210762475 -0.0002669816794471715 0.0007026455327171876 0 
-0.0004298456881938896 -0.003497398149240325 0.001478608792831954 -0.001399037992380589 -0.0008643949067500145 -0.001533523411517282 0.0009045795261964979 -0.001353611794805309 -0.001576083545737291 -0.0009286643013042314 0.001764676693078789 0.0002143233587242578 -0.0003554779485919696 -0.003360037476286679 -0.0007167866895720641 -0.001776942401143803 -1.831581522759542e-05 
-0.003691736048750269 0.004020147516684124 -0.009217951685795247 -0.003734159027817851 0.001692010411627242 -0.0002653073681972748 -0.0009038625033787296 0.001807769094641635 0.001643468563315358 -0.002206224810542631 0.004853270146327825 -0.002580036647179262 0.003490825343890498 0.0001826536497267198 -0.004074223606030877 -0.002161745221968115 -0.0002908887195829189 
-0.0002514462421096782 -0.001352875163318427 -0.0005943966744625858 -0.0001714522602512236 -0.0007706141024331183 0.0007633696231585775 -0.0007043684970836356 -0.0006948692892618518 -0.001261186455488958 -0.0002739505229084074 1.482307657695026e-20 -0.0004742358854027053 0.004793105157535278 -0.0002494609092553876 -0.0003483603780258098 -0.0008518093623067923 -0.0002328618374145734 
0.001337815516061952 0.001469236187015813 -3.388131789017201e-21 -0.0007364312695591585 9.353281387099191e-05 -0.000648568131498536 6.098637220230962e-20 -0.0004262019115243205 -0.001046063744562717 -0.001411835755436602 -0.0001788205503004114 -0.000266406747416633 -0.0004886424537302047 0.0007605575885323492 -0.000535490002629473 0.0007875118294879958 -0.0001245192464737226 
0.00318637591487558 -0.001627132757990878 -0.001524764165528283 -0.0009400242453091378 -0.001004252593267144 -0.004217657631623358 0.008950694567596727 -0.0008853410111975449 -0.0017006200900811 0.001118437757639555 -0.001326883493852003 -0.002129011755426299 -0.003139944798008369 -0.003143581024938756 -0.003891933712442708 -0.0008544677416741055 -0.001600982458686682 
-0.0004094130587532929 0.001968975772630145 -0.0004524471368985922 0.0003386777880762837 0.001762725667354144 0.0009391000754759854 0.001283443891808922 -0.001086972769066464 -0.0001524367186689986 -0.003317436681696689 -0.001553673073163462 0.001331282765640393 -0.001573100235401114 0.0002594920074959029 0.0008291841103310953 -0.001023023530682402 -0.0005925275830432015 
-0.0001133093926352906 0 0 3.176373552203626e-21 -1.375937157900853e-05 -0.000641778415646962 6.776263578034403e-21 -0.0002807665350849536 0 0.0007408225154620988 -9.601855248363305e-05 0 -4.672239063624958e-05 -0.0001417300937804108 -0.0002397464254566597 -3.870552512905504e-05 0 
0.003002667060890522 -0.000385334384520571 -0.0008907753322823015 0.001813243768238372 -0.001000844679490208 -0.003450431064340283 -0.002016249985485165 -0.0004837110145654128 -0.004153735632352037 0.002865217089869455 -0.0001379787875537216 -0.0006099794550768979 -0.0009728442370783154 5.785330482780757e-05 -0.0006602702113263679 -0.001170697947332093 -0.0006150181945683079 
-0.0001721532308541643 -7.579370653793295e-05 -0.0005614258985586059 -5.564157980250068e-05 -1.959507246175636e-05 -0.0001674425581498047 -0.0006756124195032608 0.0005989999068174923 -0.0002065247694141563 0.003582682815364546 -6.480110055355068e-05 0.0005500128575778706 -0.001192116988129128 -0.0009567400354010475 -0.00132741839581137 -0.0008839625213113071 0.000171424090610823 
-0.001127481703814796 -0.00426248353965256 -0.002640752948659949 -0.0005691518860086831 0.002013668149681203 -0.006209042138110343 -0.00261969647041388 -0.001134551761214847 0.000218068760282455 0.004922119043188395 -0.0002960283380009662 -0.001771572784461034 0.006512674726256989 -0.005887146896617063 -0.002883993298768399 -0.002253202676868246 -0.0005900172584320821 
-0.0001481044940496089 0.0008115142572118979 -2.223461486542538e-21 -0.0003077865389085454 -0.001453522447913344 -0.002555481543637396 -8.899677893999841e-05 -3.703367177188032e-05 -4.643398960913412e-05 0.001330712670644423 -0.0001036047614079674 0.0007938313213047198 -0.0009414152115202381 -0.001683063777470127 -0.001202673848737038 -0.0008158160757978623 -8.809142651444724e-20 
-0.0008444504604800988 0.0005651083259916702 -0.001942734990808142 0.006153734065860676 -0.002032341359179996 -0.001259842866501061 -0.003258661093121521 -0.001330390845515448 0.0005049527108097455 -0.0009535029867320242 -0.0002472867592013218 -0.0008531476706139353 0.0003174608410458652 -0.004735579144398178 -0.001629004033739463 0.002196998965008131 2.840621123051324e-05 
-0.004204723824443612 0.001775640337683096 -0.001727118882217565 0.0003112979277601036 -0.000692717275158638 0.001793920112230118 -0.007136852250800865 -0.002536966798748127 -0.0007277777908204909 0.001227377079282822 0.004102764612055517 -0.0002948049478025899 -0.001764538850027488 0.0004620707003012787 0.0004236586126997893 0.003298231889195632 0.0008854435320253662 
-0.005050055509282714 -0.0008844905346153622 -0.002354611855836769 0.000755172351965255 0.0008595333377104545 -0.001725790264553295 -0.003106416940481995 0.0006943823015241758 0.009837292343962684 -0.000661508640784531 -0.001276168475829582 -0.001103242992561482 0.00217378769358889 -0.001329028652756214 -0.0007616412703771889 0.0001990867222085643 -0.0004530759075057684 
-0.0001235787932482171 -0.000156159084507578 -0.0005030328634937576 -0.00135080142829776 -0.0004765348258632904 0.003199164859474439 0.0001360250731178022 -0.001262360775311725 -0.0007742143974739577 -0.003565448919339863 -0.0006619343241645916 -0.0003899867411918276 -0.0001009435964044354 -0.001512654247510139 0.001030115457001922 -0.001846038153867616 -0.001004812012048343 
0 0.003579984139229598 -0.0009296210103388956 -0.001018982873868794 -0.001261839635331977 0.002088874029200686 -0.001583453195402158 -0.0002704347273812799 -0.001127914756828744 -0.003598842673280096 -0.001024088907568214 -0.003808985200844239 0.002341662356235703 -4.453806602790769e-05 0.0003468505756077768 -0.001620451022325709 -0.000563171392022534 
0.001474260826490709 -0.01132567010890524 0.00384040239298112 0.0005323555272172556 -0.0006055777198697243 0.005269478956448958 0.0001355936808253545 -0.002793299183764614 0.00110066434866095 -0.001879933623683785 0.002458440158609194 -0.01159838944863342 -0.001229786486093456 0.003960689262380724 0.002740864938982982 -0.00150113950347215 0.001097003384340705 
9.192114792204881e-05 -0.0004187679589610327 0.001437665783141625 -0.001277696429010644 0.001581372761121806 -0.002320092378267001 0.001761254477316057 -0.0004845479169507016 -0.001020973608706752 -0.0002742732988025557 -0.001007395642745462 -0.0008884339644437387 -0.006221098723114483 -0.002296226350146096 -0.0007047134847775873 -0.0003236986555757171 -0.0005058158644031944 
-3.418182874138582e-05 -0.0001730087270198485 -0.0007148772331404612 -4.064128758159576e-05 -0.0002013307468370318 0 0.00431675831907841 -1.045658858420941e-05 -0.002707284872518095 -7.918431466875548e-05 0 -0.0005165195937482342 0.002313114535924228 -0.0006970905721484289 0.0003874091260220848 -6.415698286545977e-05 0 
0.0008534586590613462 -0.00300148881927742 -0.001487661073279139 -0.001373528231527791 0.009259760567215475 -0.007564599289543591 -0.000376475884669882 -0.002174351975066611 0.003479562445152779 0.001917306032630013 -0.001133407654179484 -0.0007265698412101608 -0.00134855698965766 -0.001597430730165718 -0.003600920693406072 -0.004574106612061414 -0.0003113958199254418 
-1.154082390633984e-20 -2.029367262104974e-05 3.705769144237564e-21 -3.37359517786678e-05 -0.000371339210011356 0.0006792692208631266 0.001140275293272131 -0.0002185395140516708 -5.627531943473773e-06 -0.0003204162240367155 -0.0001971958122692828 -0.0005612875546372234 0.003008846312897516 -0.001108620288852771 -0.0002963599431004863 -0.0001654045952306696 -0.00032150744257181 
0.0009627857153129822 -0.001275476006808718 -0.003435539363644973 -0.0004396508354469239 0.007442499703965095 0.0005152096456433448 0.008314016958148561 0.000828069224632582 -0.002611155872210573 4.677635190602546e-05 -0.002766119801173182 -0.002363693204514488 -0.002713338214101909 0.0009998591135122127 -0.005695842137911697 -0.003148426424159557 -0.000223321240872394 
-0.00275409822221801 -0.001944028867542015 0.007211275727259645 0.001845256484711303 -0.001241455944041458 -0.001381660524060555 0.002857119817759063 -0.0002917173917433415 -0.00260395575152355 0.001450394867990195 -0.0003147831454193417 -0.003163760947227833 0.0003792822401534903 -0.01269344079704439 -2.344531817584367e-05 -0.0008266319451321299 -0.0008497151409368999 
0.00022061320747082 -0.002273634370435162 -0.002714117223394077 0.001263801707570353 -0.002571318613157613 -0.003032616730804958 -0.00352714686876847 -0.0002672924221277406 0.002679857857143169 0.002047192376551396 0.003188142275225649 -0.002197542716832232 0.00205929364506131 0.002237902481293095 -0.003459860433914766 -0.003616914960917026 0.0003083370411555799 
-7.589608071498623e-05 -0.0001352038994247758 -0.0006105628410797686 -4.236277270373978e-05 -0.0002097340088004598 -9.997646662525729e-05 -0.001659375795040357 -3.477673966563687e-05 1.764010595204544e-05 7.587644376747846e-05 -4.910160738916289e-06 -0.0005584647963975201 0.001104617523892527 0.0001195918085220274 -0.0003020847804290745 -1.090279826824221e-05 -0.0002196489838733241 
-4.358100177143062e-07 -1.694065894508601e-21 0 -7.626355950722636e-05 -4.470929773701891e-06 -9.600740373845709e-05 -2.411208118203641e-06 1.207701912901921e-05 -1.103180683265133e-05 9.277412223826408e-05 -1.201784030298945e-05 1.500689571406018e-05 -0.0002911984119659296 -1.270549420881451e-21 -0.0001726392100818666 -9.793818452627848e-21 0 
-0.0009741787614851616 -0.0002064931233533984 -0.0003530077999610379 2.032879073410321e-20 -0.001094806700062493 0.0014026020358684 -0.0009204328086014586 0.00223460792226281 -5.172506835840895e-05 -0.001790538541102599 -0.0007315482513050295 -0.0008436895381102446 -0.000245177098140591 -0.0007854600569647309 -0.0008228023491499919 0.0013294079308891 -0.0008504808624976023 
0.0008050535314450303 -0.001222920884407725 -0.002605768650417966 0.0008707108873250649 -1.362828611249294e-05 0.0003066016297695743 -0.0008977952130295176 -0.001847802428073796 -0.001186014391563501 -1.712093498424335e-05 -1.236668102991278e-19 -0.0005766876493520576 0.001892654096936008 -0.001647769729788584 0.000226810134112117 0.001703517247685745 -0.0001251867741004074 
-9.130768904082389e-05 0.001679276418462857 -0.001823076940170356 -0.0002845093678138195 0.001577474000303831 -0.001185823802007058 0.007730924953996104 -0.0002863978087580814 -0.0004974580569461861 -0.001237558458368003 0.00104265915138296 -0.0006923545023731409 0.001126457689339999 -0.0005637422485701635 -0.003518144363249388 -0.001804775677481724 -0.0003711967709905513 
0.006581068902380317 -0.002201621646161459 3.048188373046374e-05 0.0001687427516966083 -0.0005566008930374427 0.0006376140134195751 -0.003584294003614808 -0.0003700732157837575 0.001165187418949971 0.0001262593768582436 -0.0007238870943485047 -0.001189871635177017 -0.001036089011821981 0.002695496839972646 -0.002413837580365786 0.001410712014513589 -0.001659390076705066 
-0.001133888377166038 -0.002958520725562143 -0.001642677524389819 -0.00139414864494724 -0.000942601769778567 -0.001445658032286449 -0.0002426167813844525 -0.0004384671122049094 -0.0003537020019224947 0.005602336757381002 -0.001296916457344736 -0.000754399207190997 -8.046068171338594e-05 -0.003808352899507185 0.0007250169425720636 -0.0001871821016121168 -3.892918351863273e-05 
0 0 -0.0001028403527901737 4.235164736271502e-22 0 0 -5.48166460770956e-05 0 -0.0005961636379966627 -2.657765915603988e-05 -8.684218794550861e-05 -0.000425772672732429 0.001664237020772563 -0.0003731554353598147 0 0 0 
-0.004942011459153254 -0.003461425065519565 -0.00771745819330006 0.001122757157614416 -0.004846478172847089 -0.003796361507522896 0.001687357650554005 -0.005734868243738672 0.01095488285102891 -0.00499300763657913 0.005799741678223171 0.003969917360874865 0.006098623571068701 0.00248990543579931 0.003787771581052197 -0.005927884951178927 -0.001657860881926356 
-0.003677557706698654 -0.001852418423661923 -0.004700973528912991 -0.0005983569432277528 -0.003233534426245928 -0.0007871155657376318 0.004747644216722933 -0.001732631370378098 0.004586413000476846 0.006381345805266547 -0.006519968234105124 -0.004889009672973672 -0.004524932026327005 0.002226305009660786 -7.298775768577119e-05 0.000889737410304798 -0.00141912832339107 
0.00046215798335233 -0.0007957749661680423 0.0005942035964041364 -0.003350727815286344 0.001634111862900697 0.0007161210461677097 0.00743660177549137 -0.005411360350549347 -0.00136396690956454 0.004759410895444268 -0.00949288961238956 -0.0004297390201049333 -0.004231469708481203 -0.005489373914889008 -0.003791356427605401 -0.004064652880659967 -0.0007554133989431633 
-0.001372403869298902 -0.002253275074392196 -0.0007893206167150312 -0.001207626096630301 -0.003552164026915646 0.0004561422926021729 -0.006163680348872908 -4.032260024166491e-05 -1.813246225177037e-05 0.006824310725728512 -0.006469865987728151 0.004664161381074788 -0.002261933480466135 -0.004614869064248906 -0.007366647617803912 -0.0001151571637590835 -0.001172690775764876 
-0.003367480143629256 -0.004560255650029764 -0.001958839715242252 -0.00155540776648598 -0.003558988055300575 -0.004195958281175741 -0.004603277275983385 -0.003944600136991023 -0.001196484954019313 0.008723828703135747 -0.002233192704834673 0.006894359861804772 0.001803604583043385 0.002554651249109564 -0.0009230002735347 -0.001106433314013521 -0.0007847058592305628 
-0.001252793599924808 -0.0009892596020634593 -0.001008593755128075 -0.001718421511308471 -0.002445082571659842 0.003413785348326189 -0.002088114750722215 -0.001280964435157432 -0.001462365804879484 -0.001525556086404746 -0.002420819175244886 -0.001952195134750135 -0.002738779325469372 -0.004294876388239794 0.005151819107350186 0.001839009213062632 -0.0005314376341709269 
2.044277691689264e-05 -0.0008231478640115481 -0.0005177019830058807 0.0005734083076507929 0.001638541420851969 -0.000927701637325377 0.003687883531608694 -7.433140561097442e-05 0.0005111825827432088 -0.001097824546934648 0.0003648483832481072 -0.0002862854766492758 -0.0007172785928796401 0.002468029288796744 -0.002156656652707184 -0.0009381000441584227 4.226463571711026e-05 
-0.0004404612258376524 -0.0011390281732745 -3.218725199566341e-20 -0.0007975430768052755 -0.0005109427386899365 -0.002061917785776063 -0.001175632080628302 -0.0007324956711507863 -0.002634240998438649 0.002638899716813098 -5.6947851233837e-05 0.001679997049978023 -0.002090265464322562 -0.002823297855317743 -3.265560947912172e-05 -0.0009476745820681473 0.001505453831651754 
0.001422400793230538 0.006435330300937629 0.002261192304507114 -0.006571675182870547 -0.006402087136274486 0.0118860042961449 0.007663085902521574 -0.004991044870682396 -0.00394217447271801 -0.003043196416528972 0.01087064381839634 -0.0005411345798372068 0.005148204452357311 -0.006255085111580085 -0.0004100216986099873 -0.009463833122872632 0.002438685881265234 
0.01161112547541032 -0.0007974725953919471 -0.0005223179149668696 -0.002489935669307169 -1.785352609018072e-05 -0.003355658575263357 -0.002881774015946247 -0.001647158263982272 -0.01465875190333366 0.002569470142633584 -0.001513148298781769 -0.001398109058205921 -0.0003170803977756395 0.0009036852967697859 -0.001813623608568383 -0.0003645372833507634 -0.005451138089167963 
0.0005911065029027587 -0.0003335808275964315 2.710505431213761e-20 7.138857031925404e-05 -0.0001187265009192902 6.396843650664511e-05 -0.0001591971039369375 -0.0008176869739609249 -0.00119424337754091 -0.0002687152763720828 0.002188714328011346 -0.001065762949448387 -0.0009314480152615333 -1.445313944909434e-05 -0.0003013468449416603 0.0004047061920040081 -0.000321613465413996 
-0.000203920914216536 -0.002513931972910008 -0.001496367460794376 0.001119172162334246 -0.0007657502656182105 -0.003456406952161702 -0.001239358488393763 -0.0004162694228563735 -0.002249857866132605 0.0003739662494637001 0.0004806212601845722 -0.001886490063548235 0.001750486198765197 -0.004867814799106434 -0.00164069541223877 0.0001099991763742683 0.001264624335972224 
-0.002338548426604798 -0.005569917351188833 0.001423073482457718 0.00184466802007731 0.003088685842239434 0.0001288449383922571 -3.416342195335087e-05 -0.002181240444422614 0.005221122395171938 -0.001284704310650331 -0.0007608209774695898 0.007667266736711799 -0.005348145249085863 -0.005315863735451913 -0.00532103338720625 -0.003054016690534727 -0.001840676868251785 
-0.002252146202652636 -0.001636487721489978 -0.001027360046495634 -0.0003424282835233671 -0.0007157515345890993 0.000970003211820333 0.003966551788021445 -0.00172370990301111 -0.0002493548982327135 -0.00295249454472854 -0.001917157555805228 0.002940232354895831 0.0005964617440347728 -0.003912979732915828 0.001396780114816385 0.001442890657105215 -0.001047712190252119 
0.002557205484660687 -0.009152980729371315 -0.0118570765803023 0.003854621612173473 -0.002715330735341177 0.007609705287296376 0.002554138593523502 -0.0008960396589710408 0.002171553705963558 -0.004776390520465385 -0.002748916232257485 -0.001986609335023989 -0.0026647630759581 0.001427230863830105 -0.001737357010315267 -0.002744384559747751 -0.007032544227660356 
-0.0002248510325545486 0.0007863871517879893 0 0.0002511452707475259 -6.60160583276267e-05 0.0001570978021607794 -0.00197978792241924 -0.0003484203004420045 -5.384409464578555e-05 -0.0008341279000675817 -0.0001140739200284604 -0.0002511638946867182 -0.001118403456354046 -0.0001074299588355669 -0.002007559090177162 0.0003627502551199215 -0.0003840867378311031 
-0.006795738525031167 -0.004195326035817426 -0.009617378214365858 -0.001105097127010102 -0.001661472037686172 0.007260692192451052 -0.01075719450628512 -0.002644531038850503 -0.005362151865651052 0.002166122531314443 -0.002002491194554837 -0.003745193336671603 0.01106020744754656 0.004618090575362885 0.001409855496604327 -0.003480358250596103 -0.0009287533724346099 
-0.001345478760090704 -0.004785104247755965 -0.003679563837922202 -0.001826291359587365 -0.002717589593880005 -0.001120122838531607 -0.005796822601415347 0.0003732525786964445 -0.00197680936508875 -0.000960651655371763 -0.0011918876714438 -0.002215405387138229 0.005450567428681147 -0.01318594123937801 0.01035078034381043 0.001814535705516757 -0.0001291180012922615 
-0.0005630928997477864 -0.00089342183737601 0.0005041965877171549 -0.001476753768289384 -0.001298316653898192 0.001775440890782227 -0.001283494706932624 -0.0002462177167528142 -0.001168740432704151 0.002907035863464314 0.0003637939296964979 -0.001443523061370742 -0.002143922397850364 -0.002194052258424087 -0.002180011072487834 -0.00113367883793977 -0.0008805930587589252 
0.004368741125742908 0.002467287064403929 0.005788179589718856 -0.002692219441396978 -0.002477899139512515 -0.002209055050992545 -0.001311686783274134 -0.001303608953964672 -0.004449368690205385 -0.001490930012989501 -0.0009782099828003453 0.001447879809727097 -0.002032831686515849 -0.002608160822416266 0.002800897138917723 -0.004114793435859738 0.002013602228632907 
0 0 0 -3.666681593848186e-05 0 -2.12635355306988e-05 0 -9.433997586613445e-06 0 0 0 -0.0002227233019650758 1.694065894508601e-21 -0.0001581895490400074 0.0003495228611598569 0 0 
-0.0009565647892125431 0.000695138748576024 0.001173941849278493 0.003047156579176101 -0.0006730922420234407 -0.001227129905249302 -0.000748061899626411 -0.002745000120782051 -0.001550311939774629 0.001439166736287913 -0.0004843938323024857 -0.0009142454754634944 -0.0007303151197967447 0.0006376656583004263 0.002096361084509711 -0.003885895285959569 -0.001949940324007706 
-0.01145509118724731 -0.002278919087940297 0.003327753476071992 -0.005033317886188231 -0.0008055237598658684 -0.003873572786955268 0.004538580305330787 -0.0006360818118750688 0.01153038060008157 -0.000850197562771664 -0.002543158569032128 0.005777782883567855 -0.007187324325561601 -0.004198517632357464 -0.002461221705828453 0.003178479147943814 0.00204333248019438 
-5.336315273441506e-05 -6.481204746847819e-05 4.323350257625533e-05 -6.776263578034403e-21 -0.0003984507925570061 -0.000284059464119972 -6.689784531239268e-05 -0.0001889811780846757 -1.118902005523341e-05 -4.362604148600548e-05 0.0003195094079848227 -4.587602723812214e-05 -0.0001719205172072262 -2.735562920232885e-05 3.388131789017201e-21 0.0001667582940811522 0.000168492964948804 
-0.0003559621966060088 9.390597581483406e-05 -0.001924812243459907 -0.0002750705292027908 -0.0004860126987957378 0.0004358946426786184 0.0007598677187417794 -0.0001410918746391742 -0.0002700220097457856 -0.001547264529925128 0.001750796342027335 -0.003179522370478135 -0.001906108947011705 0.004673902148049644 0.0005559222983379951 0.001368975037636766 0.001212112708331606 
-0.0004224794266893458 0.0002489059027827265 -0.00145355139787735 -0.001148266402201179 -0.003440886889396175 0.001282249496695647 -0.001378711706835508 -0.0004817870137828719 -0.0005059403420927623 0.001370217771524108 -0.00106322614826432 -0.005015688660311944 -0.004826263674209385 0.0004955241570527986 0.003050428732132857 -0.001447493842374433 -0.0007196613982940963 
-0.002113275917442961 -0.001600530622117827 -0.0009050079497094862 -0.001110796103249182 -0.002166544486586282 -0.004053744848652502 0.005388715085209575 0.006794472910186713 0.001286111224782329 -0.002284371079958982 0.003843195029658129 -0.005713218711338002 -0.003742411353600955 -0.001008337616188748 -0.0009049773303464232 -0.001723886252653697 -0.002677004140391392 
-0.003462978033013588 0.002249943081252038 -0.005815738032283551 0.0002814100339423266 -0.002797196278355338 -0.00727421462003612 0.00716934549032616 -0.006491511154850916 0.00319914730379205 -0.003393732133599896 0.006590244537460367 -0.002627523575464423 0.00498367834476716 0.001637448533215854 0.004170459640086568 -0.0006033834880453545 0.002396653563892503 
0 -0.001408366063142236 -1.940545933755569e-05 -9.271256470412782e-05 -0.002021326262246703 -0.001278055561799004 5.929230630780102e-21 0.000170530622999907 -0.0002574024107120396 -0.0004762470121083998 -0.001569361556836073 0.001071946001804838 -0.0006856136186259596 0.0006629285311430968 0.004609214930807473 -3.782319774650572e-05 0 
0 0 0 0 0.0007121546953438544 0.0002137321311411943 0 7.591526286274729e-06 0 -2.236247693604814e-05 0 -0.0001188699058784788 -8.470329472543003e-22 0 -0.001046476104427876 -4.296261142513996e-05 0 
-0.001206471787951557 -0.006961534387690183 -0.0006784027369577239 -0.002291954700927494 -0.001262671698325841 -0.003933491798673494 0.003698927736362375 -0.0006193830149480829 -0.0009650569287273068 0.01035643737591859 -0.003283651515153272 -0.001316469768538381 -0.002170781856484625 -0.007725305176648223 -0.003751890092633138 -0.002069470098680004 -0.002164681598521981 
-0.0003717885256472415 -0.007018375138374885 -0.001488784896500489 0.002084028127207081 -0.002631803359020369 -0.002856669785803796 -0.008936731655663648 -0.00121001225635994 -0.003006235870959325 -0.001268699942213103 0.007875389584508867 0.0003177013843044144 0.005963886480123227 -0.005398787437060308 0.002943683103011613 -0.0006235025139843285 -0.001690048221414654 
-0.001098427908441481 -0.001538369304381001 -0.0001275932229537954 -0.0005360561485860712 -5.305386662716643e-05 -0.001499181526195586 -0.0001446330962347855 0.0001307530253095191 -0.0003380200942429245 0.0008177045104036352 -0.000932618879543788 -0.0007131011410544995 -0.001207940421689405 -0.002014500380630062 0.003968388776819258 -0.0006018306475249124 -0.000103984757751134 
0.000202371598800605 -0.002783765885654445 0.002477832816395955 0.0009119146647468508 -0.00136607135647646 -0.001144634359859081 -0.003354921534160046 -0.001038583583385355 0.0009630009193318731 0.002858805188419826 -0.003339695458117688 0.007205432844759034 0.0008939695254867499 0.002259819228844333 -8.836595881809796e-05 -0.001734158551470117 0.0003649423118490219 
-0.001416179010358677 0.001119563666396205 0.002129330447283839 0.00138198319849986 -0.002770634286398301 0.002630339147040067 -0.001015925805589279 -0.0002746106027782136 0.001883882359195971 0.002552423194369689 -0.003936755567479916 -0.0007981805429169539 -0.0009175895751689287 0.0008257422022569883 -0.004485025095811336 -0.00158449756897704 -0.0002582978044436108 
-0.0007029218600240659 -0.005515571950123202 -0.001173743285585018 -0.001607502297255354 0.0005851593367958021 -0.004157962417803109 -0.004144797023114038 -0.0008896416005320857 -0.001218902271156293 0.002998313876130284 -0.0006852713611820871 -0.001117662744817675 -0.003356927828002236 0.002413022045865144 -0.001307807891133779 0.0002562365144945176 -0.001062694984914532 
-0.006198583693341884 -0.004405362986028238 -0.0009622538653237875 -0.004258328109713038 0.001804034014253074 0.004679295399155939 -0.002840063091433182 -0.003333669974383426 -0.007033052852695554 0.001022891866313061 -0.005882469364029748 0.005572607366599184 0.008826560562588376 0.009396428253293806 -0.002893121181633456 -0.005248103988328093 -0.002836133187338257 
-0.0002673058672622194 -0.0001479778186283025 -0.0001116098148967346 0.0004668992888232642 -0.0002186701196587257 -0.0004433720764954604 -0.000219065842375668 -6.238843812578207e-05 -0.0001530918215570486 0.0005226228104238144 -0.0004873866695913437 0.0001569629293193117 -0.0005510538357111053 2.384861664605307e-05 0.0006595173718362211 -1.984505649751814e-05 -2.287013556125243e-05 
-0.002412862360806451 -0.005514052003154837 0.002528464942072684 -0.001413787844175328 -0.003708332854480203 -0.0003110528461749789 0.001707539483738072 -0.001994398455665641 0.001568897272085575 0.001826430772381986 -0.001982581843101468 0.00122226682966351 0.004192362120944291 -0.001053333231191298 -0.006306246263278429 0.001119493176543567 -0.0009531482357636772 
-0.0001238402090881026 -0.0006775139792954251 -6.214064135515927e-05 0.0004413597700317601 -0.001461148179185832 0.00250944155531731 -0.0006313460019310377 -0.0004780837276232654 -0.0004810946513428845 -0.00151574142307895 -8.712930197446988e-05 -0.0002558473400704676 -0.001109446826108646 -0.0005921170168371557 0.0006601145079526859 -0.002059562313392006 -0.0007072105204950199 
-0.0001600148033059958 -0.0004037807016271496 0 -3.033565255807034e-05 1.720939272623876e-05 -0.0001785969676571844 -0.0004278288391994013 -0.0004917248445520432 -9.963519485083927e-05 -5.498719764638893e-05 -0.0001123835535576406 -0.0007299891968393044 -0.001258465154491119 -0.0003036404082980286 0.0007571372981904614 -5.31826279581018e-05 -0.0001736199408848804 
-0.008702605899876021 -0.0008700005080746218 0.002510600595663729 0.002158990784263694 -0.002367582169932086 -0.00126717063254066 0.004431629287044336 -0.0005330014235253028 0.01117432780952134 0.00440180250509632 -0.004809767251189773 0.0008792219702085166 0.003885224822948421 -0.003007140412733693 -0.0007539425327641569 -0.00092598004712621 0.002636480562782949 
-0.0004730573221331786 -0.0003959625311010619 -0.001160664195490213 0.0001990747353635282 -0.0003937820537776846 0.0001250286482344048 0.00125560365863711 0.0001119177209461668 -0.001841113230263503 0.003493976005358945 -0.001918964051558132 -0.0004597351813573058 -0.006355613940392449 -0.0004237143862699499 0.0008191332912179286 -0.003135131924795999 -0.0005261180223474471 
-0.006197271827153939 -0.005376586687023647 -0.008395514407875433 0.001413138933120322 0.005870708939118227 -0.00508273360129583 -0.0003423211837142598 -0.005439150285578076 -0.0008462796905885984 -0.001704399063511961 0.001453412796170724 -0.004399665201028548 -0.00523114014723986 -0.001447618628938459 0.006663529856902858 -0.0007405200358506494 -0.0006980444943349651 
0.003748043626801302 -0.002856416528632635 -0.002368913292212949 -0.001354819124361569 0.00103941848312841 -0.003941990240846011 0.001493439360582885 -0.002194669891182947 -0.001950033015813572 0.004673061875933041 -0.002900758374135374 -0.001185828773035592 -0.007913103352585946 0.003197532335408582 -0.00230106138810698 0.00261292300250411 -0.0001940926934631887 
-3.099037540881515e-05 0 -9.937531558126738e-05 -3.408532823806045e-05 -0.0001294359160101744 -0.0001120967794992824 -0.0001630601041867437 -0.0005899252177298084 -0.0002336922900815186 0.0003376884774027998 -0.0001092146918470903 -0.0003377757525318394 0.006137013483765731 -0.002650398457935894 3.388131789017201e-21 -0.000322677544856841 -5.772926899622155e-05 
0.00201444910722117 0.001886942687762753 0.002243351931064553 -0.001139707839558969 0.001161166781659463 -0.002815952400669737 -0.002439591911188248 0.0008035764307390105 -0.001693471811035289 -0.003191239840978958 -0.00617413416228281 0.002301567201532998 -0.001819875830668852 -0.004472605345328386 0.0008308527363375124 0.009033607516990434 0.003500823516500932 
0.006559654449710536 0.001821386735720997 -0.003636281799060486 -5.980960454635212e-05 -0.002778356508946595 -0.002140529210758102 0.001452711651483594 -0.002018433094425674 -0.003670094439026463 0.0002576307312030673 -0.004185203915375225 0.001546623352832686 0.004808960168405898 -0.002437872103102328 -0.0004379793490443943 -0.0002745936689969187 0.004185591408338355 
0.001627864636810658 -0.0002659513888085035 -0.00298764928665701 -0.000434757625815084 -0.001464894113482934 0.0007730006354720525 -0.002909887554522741 0.0006456694434709065 -0.002620943773828471 -0.001032572426126921 0.0006457481237487291 0.001934111467439877 0.0007768628120497377 -0.002599267968403716 -0.002354256035061928 -0.002470579728868395 -0.001510791516550359 
-0.001092201888875167 0.0010864967659747 -0.001772570510629336 -0.0009234306337272012 0.001324777950884844 -0.002341398446443244 0.001932473716405214 0.001379481447811722 -0.000327732228451074 -0.0003519137064845796 -0.001803767711573897 -0.001408505362433475 -0.002972941342006076 0.002802544494708545 -0.0003511790936562067 -0.001032485714787233 -0.001347453889487792 
0.002796772547511913 0.001251312712738461 -0.0001705641811226413 -0.0003739626624776516 -3.504488554150537e-05 0.004190886791325225 0.0009509373673284087 -0.001975669089715151 -0.001699358268776532 -0.002830933436495818 -0.002619914949523887 0.0003712380484263805 -0.004877634081005982 -0.005396577185867815 0.0031003040762276 0.0007129044315462408 -0.0006244369639146495 
1.069814983495772e-05 -0.002731093895484606 -0.0004884413134813684 -0.0004859711603500037 -0.001099613693827207 7.553420224771362e-05 0.003679502020353251 -0.00116654269996556 -0.0004468321615855195 0.003316669076096464 -0.000908454539755555 -0.0005115975690614683 -0.0006094287823910827 -0.002635357924426699 -0.002484183365361634 -0.0006752554504893528 -0.0003252170761891976 
4.235164736271502e-22 0.0001320525359374818 -0.0001636333029003782 -0.0006256264201155338 -0.0004387183767739962 -0.0003513720259872578 -0.0006096445424426222 2.047271095832818e-05 -0.001303766789371291 -0.0007660356428801115 -0.000157830905919198 0.004029166313368314 -0.0001470487845089913 0.001119794634483221 -0.002089605842230498 -0.0001164523494171269 1.694065894508601e-21 
-0.002800375604552123 0.0005009483232718587 -0.01110406663227748 4.890136656680192e-05 -0.001412878468495159 -0.003307199275356852 0.001434210258646677 0.0001721468489134984 -0.00356873752534146 0.003435561953687944 -0.003049795221737886 -0.004871425535192533 -0.002500283694023793 -0.001014691271842041 -0.0008343616911494202 -0.000586466674540403 -0.002438772123808048 
-0.004303158955564441 0.005399696380785168 -0.004716892505626992 -0.0001817089104758651 -0.002435196917726372 0.005102748166320363 -0.007232212983699147 -0.0003318552423037045 -0.003064379233123454 -0.00205747149186008 -0.002735817068220495 -0.00405573658389666 0.002982799152822749 0.01039828466436941 -0.007874926152586592 -0.003997372224298759 -0.0001532755947851182 
0.002649499879834021 0.0003188531838128446 -0.001600066960732403 -0.0002558114388149301 -8.367338998083361e-05 -1.270944586524307e-05 -0.0006411657523233018 0.000427127307200662 -0.0006818004788495779 7.637855951951744e-06 -0.0007983323505220322 0.0006104933955889834 -0.001382916453867084 0.0008668580343063772 0.0001538699625211966 4.485248756902581e-05 -0.0008394590947731958 
-0.0001597597135097205 0.005984241529391967 -0.0002899807615419915 -0.0005720473296421238 0.0005656118380748191 -0.001666430506500778 -0.001718900840660927 8.321426449543457e-05 -0.0004234312458902628 -0.002065841029478966 9.265771442399643e-05 0.0005615821801377821 -0.0005853110222037081 -0.0005275830518307238 0.002180521329361555 -0.001062053439863771 -4.328442782871009e-06 
-0.003383556130426534 -0.001371957497144002 -0.0004562330050218126 0.0002125541505108936 -0.001839716998523561 -0.005198426974990741 0.004330761933999174 -0.0006768773214762881 0.004020277624400612 -0.0001247380903470755 0.005378254803705663 0.001251629951161304 0.002865821827116651 0.001518732170404774 0.005003897249790444 -0.00490095311596695 -0.00156750282109218 
-0.001505070516797036 2.230584008491093e-05 0.001420573314764127 -0.0005905954936958352 -3.372037697544028e-06 0.001138812664135537 -0.00120571469100082 0.0001158092838452037 -0.000684783971222398 -0.001848427825714956 -0.0009164482785220598 0.0007769679382645826 -0.0003836266577238224 -0.002420029002695145 -0.0006137831854471211 -0.0004174079777918667 0.0007571233334479972 
-0.0003363031489603127 -2.92209971906139e-05 -0.00119119725379164 -0.0001969454239704161 -0.0006897071930814168 -5.876291071576709e-21 -8.470329472543003e-22 0.0003056035387020334 0.0004949710303641823 -0.000509155503666739 -2.682628127515088e-05 -0.0004149631693275645 0.001104298458013316 -2.117582368135751e-21 0.0002997409455591897 -5.458270603495238e-07 0.0004112432252458078 
-0.000797201623840405 -0.001069060914824917 -0.000940522482123427 -0.001063862228700463 0.002089197081170416 -0.001085423383665011 -0.0009853796506203334 0.001661513369320523 -0.001383434120238649 -0.0009211142835093033 0.0004288677656233765 -0.002100559188867546 -0.002145379178379701 -0.003422713555567268 -0.001029702952927009 -0.001096572995398731 -0.0003718869900982719 
0.001857999262042327 -0.001725585172879774 0.004901108891406126 -0.001988626898803359 -0.003065870930747268 0.002413647959927628 -0.005609409169963013 -0.0009637619536551864 -0.002392716704308486 -0.001487175463526059 -0.001491804781714175 -0.001962100770024533 -0.00444368278328501 0.0001915125829364675 -0.001058553821844107 -0.002938928518217795 -0.0002335627701774225 
-0.003406253364147448 -0.004994089235679836 -0.004119136929208292 -0.001155262573207128 -0.003450947202190218 0.002327559869574742 0.003159306381790315 -0.005405069124175286 -0.006225265394189577 -0.006118219139072905 0.003567952067191738 0.0008170697018380296 0.006244712414677596 -0.007181895561314281 0.001642386454437313 -0.009972264044973551 -0.006969095932280715 
-0.0001826093496533819 -0.0005331228530457105 -0.0003900193086567829 -0.0002056311540278567 -0.0001685958922828027 -0.00104033486229736 -4.303949876629254e-06 0.0005749477867238253 -5.748508331718994e-05 -0.0004885131688697734 2.117582368135751e-22 0.0007864972994860253 0.0006027438617235669 -0.0005513083774590509 -0.0003698772355326502 0.0002338599864463195 -0.0001068390113643943 
0.007958532834542731 -0.0009835809591385285 -0.0014723873858511 -0.000187074721979622 -0.0002610604096179977 0.003557386733844696 0.003720916141336519 -0.0003023938530353666 -0.0055765806568555 -0.0005451334256872096 7.481514602048544e-07 -0.00210276736748901 -0.003317238317700864 0.004695579827272409 -0.0002564746566446289 -0.002371301350536481 0.002964134767086817 
-0.004920761295648107 0.0005098600851096032 -0.003194688903446282 -0.0057249385757793 -0.0006497050365654541 -0.0007460178103590528 -0.009936345890286559 0.0002886935101284137 0.009100599669264391 -0.0005845298526688439 0.0006232354691949083 -0.0002758428770750428 -0.001558035799706951 -0.0005921248845972886 -1.01643953670516e-20 -0.0003025919837027805 -0.008670448756729983 
0.006785728417617644 -0.0003887116829224395 -0.003140223186403587 0.004046979084101708 -2.924392553412806e-05 -0.00238002329130143 -0.003691815549039303 -0.0006897633921255106 -0.01298552670226419 -0.001286287548523948 -0.003738749953418477 -0.001224919450925883 0.002216300620679034 -0.003099193033011664 -0.002408893118296238 0.0001554228714992492 0.007372048839098593 
-0.001858095876435016 -0.002578300814205885 -0.002812964449334401 0.001960121179577 -0.001501255368156075 -0.0003464518762589141 0.007756786224567064 0.002368186659157395 -0.0009804021970645426 -0.000200866594008328 0.001810922063313324 -0.001877189841944196 0.0004129254808652736 0.0008428708958931613 0.0006233209492423286 0.001979721984614265 -0.002920870732224409 
-0.0004618746462600758 -0.004682022941768015 -0.001216124201618275 -0.000366936818464617 0.006761978436924394 -0.002388737606161199 -0.006274736185100723 -0.00257150732202249 -0.006044080012289998 0.004053538770545386 -0.006312927499988875 -0.0009205946469149043 -0.001144631330665347 -0.002774471487112021 -0.006412387671960163 -0.005992688866176468 -0.0009353037327896177 
-0.00087753314706408 -0.0001910259567768219 0.000104383245232357 0.001745346881803777 -0.0006491027281144052 5.71943288043825e-05 0.0007409384988213268 -1.703330317369195e-20 0.0005213767945270626 -0.0008523725661425937 -4.619894454116939e-05 -0.001065620946063902 -0.0008805646703100513 0.002428679477004152 -0.001305737612969522 -0.001812103969412444 0.0008703675657204564 
-0.0005639082450704511 0.01103820952103923 0.0003271634973784436 0.004603429021857636 -0.001073579775053628 -0.002471104610208075 -0.004473756368120431 -0.001337740460318148 -0.008176587520462852 -0.0021175286592197 -0.003251467580425059 0.003279308121805926 -0.01099539801785266 0.009908725034554793 -0.002690955115687896 -0.003302618605024069 -0.002614927613268794 
0.001610316374031018 -0.007977227816776922 -0.0007656174556346098 -0.002053453292502052 -0.001688986039311487 -0.005685273016093242 -0.00102834711945185 0.001667232929528006 -0.002658699166161115 -0.001413092685798595 -0.001279946547151826 0.000859518878010288 -0.001029406484712941 0.01055191603388149 -0.0003490360720142499 -0.002838405086105296 -0.0004527883645712746 
-0.0044641207557991 -0.0001170589306616707 0.003047778970577039 -0.002461851701025892 -0.001430517035040356 0.0136038616242687 0.001229020309820483 -0.000563986293497703 0.006601154613941122 0.00173397977262609 0.00174602558686099 -0.00750085471056531 -0.007857550358096155 -0.002908148321718747 -0.002396602333677258 -0.0007833371396365736 3.326800384258672e-05 
-7.924010499175994e-05 -0.0006002137088206718 -0.000380825014336017 -0.0001999182854545926 0.002076929553612716 -0.0009282063490446414 -0.001987599074768745 -0.000300173564651139 -0.000913085668676183 0.0003936591060406418 0.0005599473151050615 -0.00216982693918177 0.002219821958680822 -0.001518743198227124 -0.003289346186515867 -0.0007552089648058282 -0.0002236627969037705 
0.0004116549190514076 -0.002425969461183715 -0.004228285265025426 -0.00163306714278762 0.001142030240138231 -0.004141377938400658 -0.002852288331658599 -0.0001131648917124879 0.002364937089468705 -0.001075682960508604 -0.002168781575064885 5.118987487062876e-05 -0.003519387662315116 -0.002009374031737642 0.00122012538996405 -0.004137204541062148 -0.0003705533852862258 
-0.003780603756004622 -0.0002999749540035227 0.00246633342974231 -0.0003973018663833516 0.0002963229844473377 -0.00160889076300093 0.003715558541828036 0.001294970792764927 -0.0009918624366265522 0.001216111773039908 0.001115984631655869 0.0001772117907488366 -0.003334681685592441 -0.003002309569886219 -0.0006964097518397773 -0.0009549317637052712 -0.0005186023602208451 
-0.003123969651085322 0.001494702641659892 0.00290410500864305 0.00144531097023932 0.0004005015961956728 0.003378962842582041 -0.003727647192000727 -0.0008739748913203721 -0.005438823479983396 -0.002824789767076192 -0.001039018177561954 -0.005154245258953727 -0.007737587913341918 -0.002319846589880257 -0.0004284221254199323 -0.001573655262033151 -0.0006615163322671759 
-0.001317255026948535 0.006069756310820746 0.006866944854310862 -0.004547136637054409 0.001463017002872892 -0.007434483353226108 -0.006564801825527272 0.0008083752118840323 0.01079190211397897 -0.002861978992700458 -0.006784677573641809 -0.002842051314037982 0.006006663582034361 -0.005784804244435489 -0.00910727542248658 0.0004835418574308787 -0.005605832537884245 
-0.0001379433310785558 -0.0001607086755223746 -0.0002002179151603412 -0.0003843227406154143 -0.0004600452620376097 -0.00049809173135489 -0.0006231584904648049 0.001309882508603098 -0.0001001658840207756 -0.001025863393789997 -0.0001168400181508623 0.0003584808604365226 -0.000248307797945837 -0.0009277852515333328 0.00129361295082006 0.0001704990043034775 0.0001332208374806947 
-7.354425760687608e-05 0 -2.166443191643885e-05 -5.480927008256218e-05 -0.0001320085831552492 0.0002160816169835631 -9.35751604381639e-05 -0.0002227317221552869 -0.0001233100518562786 0.0002917276755707886 1.694065894508601e-21 -0.0002742637981711557 -0.0004593222401889223 -3.328105476341602e-05 -0.0006424496558086512 -9.679584876218622e-05 -7.523203069775788e-05 
4.235164736271502e-21 -4.218132470278305e-05 0 -8.470329472543003e-22 -2.185176293246653e-06 4.235164736271502e-22 -0.0002995781613379291 -6.352747104407253e-22 0 0 -0.0006145045122850347 -0.0001210997656221086 -7.057268815483372e-05 0.001330098650165181 -0.0002699429742538817 -9.743442727025863e-05 -8.470329472543003e-22 
-0.0005419983428186735 0.0006531949658795082 -0.000885663543815372 -0.003807078704799315 0.00297789957360596 -0.002916422825162684 -0.004557878785025594 -0.003370460286823549 0.0005470944582246244 -0.005969764758990225 -0.006636654975152727 0.002120705623870139 0.002360810838183502 0.0002888278536756072 0.00410065320036871 0.004149586392748066 -0.001381644320380268 
0.002501568103007649 -0.001729094379883044 -0.0009486202629270131 0.00171023657458128 0.001151425571164091 0.0003375960862508826 -0.003107566721984019 -0.0002310685474730184 -0.001634498726945418 -0.0006882841073465688 0.0009445039843943074 0.001899600283872111 5.055565810854934e-07 -0.002197870926389896 -0.002907491909402852 -0.001278545222134566 -0.0004682946333413796 
-0.001448541156062912 -0.004911354856067513 -0.0024667013598941 -0.00143497691067953 -0.001460778736047398 -0.003893147473767846 -0.0004871232607825992 -0.001327613904127772 -0.0001080323720666009 0.001180369368141311 -0.001003937813454407 3.474511652070856e-05 -0.0003764719602129 -0.005405624353828528 -0.0003757839249446929 0.005895799882622386 0.001456040210023502 
-1.036324820254937e-05 0.0003147354951421477 -7.304235016964825e-05 0.0006894093046176065 -0.001033730957999633 -0.001712663901990555 0.000225262616297562 -0.001142067594525467 -0.001206440787564344 -0.0001669941687053684 0.002484524653368304 -0.0007382022734672632 0.0002961238202798888 -0.000682870558032629 0.002062252341283511 0.0003273773860793021 0.002828642097355713 
0.0002216494353284721 -0.005725845231195064 -0.002127428449835901 -0.0004146032319561347 0.001215228549625298 -0.003171630507759922 -0.003890605296793494 0.002206663662013963 -0.00342761330539983 -0.001787478459365818 0.003623859178758115 -0.003899650560945436 -0.003599113509792478 0.001222567502057033 0.002562368234720766 -0.002544350506254461 0.0003463206322188186 
-0.001002512814095096 0.00105885096771574 0.0008977996706080989 -0.0004500788207690327 -1.365819610057235e-06 -0.00243108538364633 0.0003954556900552314 -0.0009353291762462866 -0.0003008478264929458 6.091326291286408e-05 -3.977501198701643e-05 0.005827637828308107 -0.001948613516992129 0.0007950493364414406 -0.001593786242458898 -2.680891940111095e-06 -3.374827000266136e-05 
-4.71590387355479e-05 -0.0007310665427351801 -0.0004575444693363692 -0.0007341775607941573 0.0008409218483128876 -0.001031051975624635 0.004750661580225319 -0.0002302764032375288 -0.0002122363466078961 -0.001445014234610717 -0.000208907869780972 0.0007897887996149848 -0.002077366453747579 -0.004165762878425214 -0.0005808369844124827 -0.0008237596833980215 -0.0006225624345888725 
-6.979684262077117e-05 -0.001200111537286692 -0.000194893166279244 -0.001714560713797587 0.001072668499700312 -0.003447582563444096 -0.003238122756549112 0.002655415229635366 0.0004050312404785087 -0.003147259849030184 0.0003950535894690036 -0.001039434562478505 -0.00218343188472745 -0.002451100966766895 0.001221731806343789 0.002961490202458306 -0.0005913612194111704 
-0.0006541433475783004 -0.002647956775087174 -0.004344538299780851 -0.0004365457498337584 -0.001477587494602831 -0.003964945909624265 -0.003106912209525316 0.005507857399552227 -0.001114199847319568 -0.0008796154100224132 0.002264821028929507 -0.0008357189826288054 0.002287341246737991 0.006212110509525928 -0.003615488150354798 -0.00290042411764025 -0.001287859621670323 
-0.00365161370190198 0.002802273329573784 -0.00297017212225493 -0.002325932792302895 -0.0009001788070936514 0.009198242538437658 0.003101307602238844 -0.002482456254560076 -0.001718683553011889 0.0009014713609794462 -0.003586760227756622 -3.858115770015966e-05 -0.006829455244943041 -0.01017490787394818 -0.005094509899432316 0.005715218283375576 -0.0003021165906055564 
-0.0001615075805167853 -8.302560824044038e-05 0.001005886723132567 -0.0003566686407622834 -0.0007425051975152914 -0.0008875637867275693 -0.0004561237926673128 0.001946336336205153 -0.00050974968325397 0.0006716393033829345 -0.0005532932766980356 -0.000334406610828013 -0.0006237688744847319 -0.001654558031046475 0.0003111440275355286 -0.0005394886752807361 -0.0003246355177159379 
-0.001777805332801317 -0.003126574541560342 -0.00179774141892776 -0.003502811410128708 -0.002665603985040502 -0.001636428147729628 -0.002424614176039486 0.0002768297069403597 -0.001291141967199872 0.001009294349928281 -0.002178728117568909 -0.0003591777103652268 -0.004201162314865807 -0.001526090594958629 0.004389454134471081 -0.002000525586535665 -7.736725713181697e-05 
-0.003479724487346603 -0.003076136258441008 0.0005090566316557897 -0.001519409029643015 0.000115015915079967 -0.002086108009147421 0.005101393112707312 -0.001286608369588772 -0.003582943433477246 -0.003548565850134498 -0.001359514103046016 0.002994260342561238 0.0008550393178289272 -0.004570514480610403 -0.005575398621464031 -0.003393381248125114 0.001324698717526405 
-0.001493466316774861 -0.001464465769369683 -0.006125068387938275 -0.0005917345313308304 -0.0004273564877160009 -0.005056560870430589 0.001245201447347915 -0.002661224853877056 0.006492245218075531 -0.002534721455483892 0.002666584390885992 0.001736885830111593 0.007008320711090939 0.001385793144205187 0.001606367986048141 -0.0007822444374666598 -0.0009554833234974587 
-0.001105376324545254 -6.036862275453191e-06 -0.0004472077717975412 -0.0003744314407036178 0.0002379663544004399 0.0004128288480828996 0.001062398055172435 -0.0003768953710439036 0.002625880499343171 -0.0001131297357315727 -5.568298445273237e-05 -0.0003884376778664364 7.352785098627696e-05 -0.0002812225044380406 -4.263172061031931e-05 -0.0003395367768860239 -4.797020546671487e-05 
-0.001091961756960144 -0.002035960016149772 0.001948648421717089 -0.001384141282985617 -0.002544985466248977 -0.01442258816321321 -0.004514299301662651 -0.003860511003109597 -0.001303196072073703 0.0008340048290506489 -0.005517897581235781 -0.01267778970254235 -0.01029098540983828 0.01180267020197792 0.007952458233208523 -0.002703765876348751 -0.001870647704635258 
0.001601175337034421 0.001385356876248475 0.002442350181507771 -0.001897346548901925 -0.001552437650293551 -0.002827539435838467 -0.008014231599674184 -0.001501159677907215 0.0017506304487051 -0.0001206690863868256 -0.001110149166699975 -0.001806676562207105 -0.0036413031871747 -0.001405225354799998 -0.0023021406923325 0.003595373422017702 -0.001899257673221979 
-0.0003187228622062184 -0.0005184139532490408 -0.001143912162617626 -0.0004634566624582641 0.0001231929781235479 -0.001212503376637469 0.0004475524070987994 0.00145212813556834 -0.001727109474722826 -0.001637822821993476 -0.0005339648635634887 0.0021562553166575 -0.005184020435851839 -0.00180078749659217 0.001820299186603713 3.863628959735514e-05 -0.0002252679501111004 
-0.01037493252584848 -0.0002978667935279253 -0.004367312490234043 -0.003245657193536559 -0.0003382986726048649 -0.001520669451495703 -0.0005564722253185308 -7.202412441467645e-05 -0.0005955933300999978 -0.0004386452966398272 -0.0009949234459659163 0.001256259190801836 -0.002465975545720325 0.001003968437796819 -0.0002922420599906221 -0.0002730149331499032 0.00412316149439632 
-3.37100323433116e-05 -2.887966640082926e-05 0 -3.176373552203626e-22 -8.829523681700732e-05 -5.786571262083594e-07 0 -0.0001501962916971538 0.0005880494362763823 -1.606580557182436e-06 0 3.675439532355715e-05 -0.0003452647610091635 -2.90933303185491e-05 -1.151170991917038e-05 0 -1.694065894508601e-21 
-0.004016747005098259 -0.004187187385421583 0.0002882557224022735 -0.0003961868534946669 0.000474782965070604 0.0004801897713311552 -0.002674129810580183 0.0009459544722471368 -0.003015055858572669 -0.006141049415232068 0.001707257687676564 0.0004334641594445188 -0.002666559525904018 -0.00271376451863965 0.006861292415973171 -0.002109103951069541 -0.00186850116484032 
-0.0001104290043451786 0.0008324895309568812 0.0001620045540068697 -0.0001044033354400941 0.0009814120538986554 0.002783608212534825 -0.0004066806703561573 -0.001450419218228694 -5.362902455489837e-05 -0.0008702715829712747 -0.0001196401983230859 -0.00149662160060363 -0.0005290829660680353 -0.0005227391542960633 -5.274692339528911e-05 -0.0008827786560252706 -4.184828356016411e-05 
-0.001719872785126374 -0.001754707540339801 -0.002084901125663624 0.0004766053625091877 -0.0002418834820682841 -0.0008144036891805241 -0.0002319412622610233 7.126463013683796e-05 0.0004129464187074365 -0.0007433792160989113 0.003915956475946828 -0.003749070618409316 0.006577230513827115 -0.001606519249333721 -0.0005833431010504274 -0.0009978826970033371 -0.000837253423692012 
-0.0004045865233743409 -0.0001623623683115442 -0.0008339213342178906 -0.0002170071493925288 0.000114659418121553 0.001544989773059513 -0.0001751498937931144 0.0003224069100247785 -0.0001910198834177642 -0.0008461208795741182 -0.0002689926611076472 -0.002270730340563266 0.001330045809896214 0.002569957388237446 -0.0001128644837010625 -0.000441064518111635 -6.395452173466958e-05 
-0.0001226240677227263 -0.0005898532197753832 -0.0008071265803096998 -0.0001221877498860075 0.0005829825384081385 -0.0008170864466524579 -0.0001049815926751402 -0.0005563053791765729 -0.0002002307564451484 0.002361932220683151 -0.0008021965113962087 -0.001149064677554557 -0.0005606119159011194 -5.336143307955305e-05 -0.001749396856515439 -5.814953224636993e-05 -0.0003019814314983616 
0 -3.541061196580422e-05 0 -0.0005276526041421862 -0.0001664265103406641 -1.439956010332311e-20 -0.000493889551674455 0 -0.0006785108954328555 -0.001364144328691922 0 0.002448378976670627 0 0 -3.155391636968875e-05 -0.0001599781797487825 0 
0 -0.0001983763202998861 0 0 0 -0.0001650656946346116 -3.388131789017201e-21 -5.614486218754338e-06 0 0.0002079919108902138 -1.453196052587755e-05 7.30565917006834e-21 4.235164736271502e-22 -5.929952070828249e-06 0 -9.600112434035277e-05 0 
0.0005640683596161662 5.082197683525802e-21 -2.655963902348042e-05 0.0002364501952556629 -0.0002201929338722474 -0.0005701008066210559 -0.0016402746076198 -0.0004328380112555195 -0.002252229018462041 0.0009990599537064511 -2.45412742932456e-05 -0.0004541590533869994 0.0001034867495489251 0.002464376866030086 -0.0009619099837915662 0.0006321179081933806 0.0002001390218983049 
0.002305111646481022 -0.0008890230959314631 -0.003086335606471249 -0.002425699004839583 9.627553367362708e-05 -0.008614569905211757 -0.002528213038919438 -0.002029824352788556 -0.003804836512571849 -0.003993157646205498 -0.0007587730246912996 -0.002526656008726073 -0.0008476630932667151 -0.005263290745709046 0.0004474276692862208 0.007529043419902634 -0.000516211463898945 
0.002667344410212419 -0.005687157804781244 0.005081623476746316 0.004055877451991128 0.005768334155975468 0.002512896711513954 -0.01329591395735584 0.0008013528989867545 -0.002648446489492923 0.004003201871310357 -0.01100507598734119 -0.004240832172119409 0.004993708921073755 0.005245149106051387 -0.005959977086504848 -0.004439565382184572 -0.002073182892871694 
0 0 0 0 0 0 0 0 0 0 0 0 0 0 0 0 0 
-3.853053661512825e-05 -0.0007872894976348843 -0.000893281807378848 -0.0001058410456527463 -1.404419699108861e-05 0.0007476423838918124 -0.0002619276102061301 -0.0001024941497210599 4.746300063308902e-05 0.0001466909158629279 -0.002520688398487526 0.004292233939026612 -0.001121922850969607 0.002572591715062033 -4.909477823288357e-05 -5.847075598727485e-06 0.0002534425609977049 
0 0 0 0 -0.0001311384783817546 -0.0003096509187868934 0 6.776263578034403e-21 -7.033025389451629e-06 -9.656851551293262e-05 0 0 -0.0003411962876774779 0.0004269529829406872 -0.0001292401712077531 -3.518094741226646e-05 0 
-0.0001534039730737225 -0.0008256465235247587 -1.072650202901743e-05 -4.434780701152035e-05 -0.001274637033343177 -0.0003278277792236719 -1.137321121888542e-05 0.00118731492194131 -0.00071394437821277 -0.0003967969658429306 -0.002314717592679748 -0.0009700712604507643 -0.0008258533026498214 0.002091763442887891 9.956454712638082e-05 0.004715139220973563 -0.000163940684769421 
-0.0001633630832633798 -0.0006259475270254532 0.0001874420863066686 -0.002766755636340393 0.001516610092812315 -0.001657935628599935 -0.001027594917135268 -0.002742841710329864 -0.001014751324953213 0.002207916385428176 -0.001468458230350212 0.00072162512078845 -0.00510180685195368 0.001256205253295387 0.0007220278563357123 -0.0009372202479052513 -0.0001353013961000175 
-0.001268739893215729 -0.0008122326741098312 -0.000480685659913062 0.0006187412994689357 -0.0006690270959968697 -0.000744446081427682 -0.001457818234010012 0.001746579536761361 -0.0004398178921278143 -7.683802112530943e-05 -0.001520216897749222 0.001175066563432645 -0.001648008388280249 0.001425414273012016 -1.905824131322176e-21 0.0002844294707172285 -0.0004180398314141243 
0.001931996306805659 0.001133500868974003 -0.014303349145463 -0.001477173956683871 -0.002166966528173294 -0.00331139039863975 0.006729681352586529 -0.0001630002639095358 -0.007481689586177091 -0.0009967136228752661 0.003128964621581303 -0.00180261404361837 -0.009374526301300312 0.01349732487449587 -0.001398204394348982 0.005448465865018307 0.00614344666710655 
